AAL,-1.1809418,1.5978557,2.3507974,1.4635122,-2.373893,0.4332367,-0.56486875,1.8777437,0.8829027,-2.1062944,1.1157864,-1.5984671,-0.018132092,-0.5464863,1.5156455,-0.2380458,-1.8377078,-1.3000007,0.4295719,-0.9514486,-1.9378074,-2.577571,0.75430703,1.5213892,-0.3720281,-0.16149934,2.6047585,0.67478967,-0.11762649,0.47669086,-0.922128,2.4634614,-2.4498115,-1.8836958,0.78889877,-2.1975338,-0.45567873,-1.93484,-2.0986123,1.6461327,0.12655531,1.18872,1.5641499,2.5771263,0.5562152,-0.73296154,1.5493648,-2.2619672,1.0782491,-0.30738145
AAME,1.083682,-0.0909288,-0.08285231,-0.14720796,-2.0756252,1.1110361,0.31540117,0.53345823,-1.1104113,0.20389444,0.050197784,0.8227759,1.5556037,-3.5360062,-0.2423375,-1.4928972,2.8235483,-1.4369723,0.5091401,1.770175,-2.3775172,-1.5936357,-0.56687284,-0.11618096,-1.3400842,-2.1277034,2.0996487,2.407523,0.54129535,3.4992797,-1.6377051,-0.27920318,1.3725713,-1.1449335,1.6597254,-1.5205812,-1.4982582,-2.136643,-0.39535734,1.3555963,-0.07180398,1.4853016,-0.25732908,3.4688838,1.9445052,-2.4909513,-0.67058563,-1.3126596,0.23261638,-0.23233527
AAOI,1.1198418,2.5791395,2.3709366,1.1417528,-3.0270574,1.7735386,-0.3728156,0.47184348,0.5861281,-2.108072,0.15448679,-1.1126604,2.165929,0.82224405,-1.4984483,0.8325112,-1.9299082,-3.104058,-0.7404228,-0.46110258,-0.8653872,-0.7780262,-4.193735,1.9994395,1.0031605,-1.7543356,-3.4610841,-0.15183227,-0.20924409,1.5257617,-1.2993985,0.74718165,-1.8232231,-2.8501105,1.0938286,-0.42798957,0.043090373,0.90290236,-3.456077,0.36241704,0.09259385,3.4787912,0.95390284,1.1749954,2.9923868,-1.6839085,1.5759043,2.1875815,-1.8292296,1.041445
AAON,1.1393731,0.9148656,-0.80428755,2.0042126,-1.8101618,3.137958,-1.3321277,2.4616864,0.8222697,0.6740344,-1.2084104,-0.05495318,1.4818723,1.013293,1.0118961,0.8694244,-1.4881465,-3.7346237,-2.6733627,-2.3956132,0.21702553,0.37108523,-2.731479,0.70073235,-2.1355193,-2.0599158,-1.4424121,0.8714868,-1.4095111,3.8162963,-3.3152685,1.0454046,1.2833176,0.08542677,1.9759523,-0.013542384,1.1706524,0.57222587,-0.08183679,0.20964785,-2.065748,1.0329814,1.0724247,-0.7236275,5.3227,-0.91564584,0.6411343,0.20044877,-0.4409405,0.15340003
AAPL,1.7345417,1.0222154,1.2527723,-0.8743832,-3.0690398,-0.086365834,-1.040121,0.31582478,2.217914,-1.7874923,-0.6792829,0.5854365,1.6851641,1.8294035,-0.98988485,1.4888611,-2.8172836,-4.3862777,-0.55225515,-1.3386178,0.28716165,-1.4091967,-2.9888113,3.2661328,-0.6622453,-1.0690868,-3.082022,-1.1183456,1.4114852,3.7145267,-0.66835845,0.60206366,-2.6570187,-1.8124251,0.87390447,0.53950584,0.23840863,0.18048553,-1.8515787,0.70115924,-1.6569833,1.2852514,-0.35631314,0.9306526,2.2679088,-1.8916588,2.7701807,3.041798,-1.904499,-0.0065627503
AAWW,1.0934702,-0.07075347,-0.18319762,-0.25009114,-1.1311483,-0.08044494,0.4495381,-0.18373527,1.1182064,-1.8283933,1.4002427,-0.6454121,-0.18922496,0.27938083,0.6341901,0.41992253,0.63573146,-1.7821587,1.2134541,0.85060453,-0.7433428,-2.1809418,-1.6342052,-1.1335078,2.9912484,-1.189216,2.4262145,-0.21019715,0.19001313,-0.071664214,-1.7383893,-0.2753028,0.264638,-0.8950308,-0.65207684,0.72969985,-2.9300866,-3.5981574,-2.5143483,3.7601864,-1.0478384,3.8325305,-0.07657807,0.32475474,0.23886548,1.9780252,1.3387051,-2.5509057,-0.23812428,-1.1855171
ABCB,-0.43765822,-0.0548991,2.4004087,1.8042642,-0.400675,-0.88579357,-1.2626945,1.9232038,-0.4305917,-0.22277229,0.92308193,1.3471888,0.5682785,-1.6951861,-0.9755416,-1.1607623,-0.82794356,-0.8586082,0.39186352,-0.8061924,-2.2367222,0.81678444,-0.3466958,1.0869317,-3.4838357,-0.60191035,0.88833123,0.58544594,-0.6511531,2.8161738,0.83897966,-1.2425706,1.1701673,-0.4199353,0.32566282,0.102168694,3.5722213,-0.19146505,-0.37254196,1.0358516,0.29137546,2.3921895,1.2529045,2.5963817,3.1041186,-2.3166757,-0.3760748,0.46871638,2.318204,0.90280885
ABEO,1.5840263,0.49136227,-2.2957253,1.318344,-2.7350707,-0.32305795,1.8769931,0.19233854,0.93041223,0.024657961,0.32363936,0.597342,1.9739075,-0.72439164,-0.77334815,-0.6404753,1.9666482,-2.1558676,-0.46079934,-0.10640915,-4.42272,-0.46421912,-0.59507513,1.7467816,1.4748293,-0.49352282,1.5445244,1.812768,1.5965664,1.5413815,-0.015981711,-0.052244566,0.23045756,-2.3019192,0.52854806,-0.15228413,-2.4782443,-3.0434442,-1.627707,1.717169,-1.7783351,0.3549239,-0.5189016,1.9732199,2.68568,-1.489848,0.82445085,-1.96338,-2.810752,1.5097847
ABIO,-1.0493432,1.874947,0.6495228,2.9733744,0.37319198,-1.1081284,-0.7819816,1.209523,1.6517768,0.94730365,1.2439318,-0.89944935,0.750078,2.0169303,-1.8864982,0.7434756,-0.7224967,-1.344024,1.7212383,-1.4021024,-1.92756,0.13339671,-0.8300856,1.9662918,-0.15063894,-0.8888968,2.3863676,-1.0045836,-2.334603,2.7414439,0.93379104,-1.7001581,-0.63066,-2.2652173,-0.35705143,1.862675,1.7384858,-0.67332953,-2.8258197,2.101142,1.1567203,2.5728617,0.4724875,1.5047548,2.5701926,-0.40328357,0.3195295,-0.060110204,-0.6067712,0.024797158
ABMD,1.0443715,0.31932375,-2.5366282,2.2172859,-3.1064956,-0.6882722,-0.22288708,2.6798763,-0.03754766,-3.4553337,2.9715242,0.40469584,0.46371904,-0.95356476,0.61979985,0.5209363,-0.69284815,-1.8867011,0.6651104,-1.8089114,-0.4236695,-1.9066243,0.1059047,2.1885228,2.9397438,-0.9241031,1.0926505,-1.7695804,-0.5110674,2.1500576,-1.1728591,0.11242631,-1.3733468,-1.7621213,-0.82612747,-0.34438244,2.5400918,0.2387017,0.45347106,1.6772057,-1.3955845,0.191968,2.4576876,1.8563011,1.9777336,1.0368943,1.9498293,-3.2278626,-1.0647773,2.9058485
ABTX,-0.3710008,0.14443971,1.4240065,0.3770228,0.8388201,-0.7659369,-1.4452636,1.5383048,-0.49196693,0.4301989,0.90022343,1.6547005,0.3747212,-1.935937,-0.616261,-0.13733488,1.0028208,-0.40575612,-0.24745344,0.46934035,-0.8074039,0.053786665,0.41635498,0.06713477,-2.9643157,-1.0034814,2.7941139,0.95921344,-1.147527,3.52364,-0.37716445,-1.8458499,1.901392,0.031876016,0.062051866,1.0792562,-0.40455845,-2.4682922,-0.5154742,1.3952333,1.0146917,1.5140008,0.8110941,2.4170117,0.63706523,-1.0331844,-0.7228412,-0.63076806,0.16503417,0.24977815
ABUS,1.8957764,-1.2293988,-1.7394954,0.91661817,-3.1012063,0.7880917,0.009334843,1.6396847,1.0378968,-1.7110502,2.7893553,1.3805209,0.91147715,-0.097268805,-1.2732047,0.17613117,-0.22094965,-1.0483092,-0.16056268,-3.6612537,-0.93857133,-1.305347,1.0325247,3.5536315,2.0360157,0.41859522,2.2872434,-0.032168366,1.2182124,3.164753,-1.9476589,-1.2108396,-0.50321776,-2.235736,0.37965277,-2.1381755,2.7218685,1.2460326,-0.7602846,3.112643,-1.6473455,0.54832166,1.2989141,1.4088315,2.44788,0.13609688,3.094981,-0.8980482,0.48949265,0.473514
ACAD,1.1197022,1.1969014,-0.67544496,1.635961,-1.0150324,1.0720805,-0.77218944,1.7337127,-1.1703424,-1.0837463,0.76875114,0.807951,0.1983532,0.38901943,0.985972,-0.26892346,-2.5195072,-1.4575545,-1.2747535,0.5979157,-2.8283477,-1.6756507,-0.49416712,1.4548854,-0.08959947,-0.91889507,-1.4049602,3.1100833,-0.8440187,3.0138743,-2.9935987,1.4458936,1.4097013,-0.82552654,1.2234802,-0.08585932,-2.0440161,-1.0011228,-2.1217341,1.2401487,0.6773284,0.35159886,-0.99717206,3.2714455,3.197187,1.2668926,3.0077605,-2.2372591,-1.2337822,1.3629452
ACBI,-0.60021394,-0.08551169,1.1482137,0.15213919,-0.3075028,-1.6567463,-1.0091124,0.5815489,-0.9871937,-0.30649677,1.6936901,1.9704578,0.6773823,-1.3559451,-1.4133083,0.27283043,-0.119955234,-0.6125688,0.14325958,-0.62081856,-0.40569624,0.9011893,-0.94624954,0.35827115,-1.77337,-0.3557696,2.124526,0.111340895,-1.2291876,3.1328056,2.3966784,-1.6971678,0.08191355,0.5342297,-1.1693084,0.7145929,1.6253661,-1.4090359,-0.5435523,1.9041169,-0.18310371,1.8231589,3.206329,2.4460912,1.3076413,-1.4010695,-0.92200357,1.0383103,-0.7765736,1.2927792
ACET,1.1492963,1.7280663,-2.3724673,2.4104877,-2.6005127,1.6413116,0.5049012,0.96228486,0.8113813,-2.8717482,0.17749256,1.0051671,0.115622215,1.0796928,-1.59854,1.566701,-1.7295688,-1.7559366,1.8592806,-0.83402056,-1.9543886,-0.3167065,-2.4659975,2.8970964,0.11609336,-3.1962824,-1.8852228,-1.8944626,2.0424545,2.4036505,0.11993708,-0.12680592,-2.2205894,-1.8292121,-0.2737666,-0.5327994,2.035162,0.21465245,-0.5170159,-1.4460621,-3.906616,0.19063649,0.3161237,0.5097343,2.1117232,-0.7761801,0.61651176,0.6480146,-3.5921717,4.1321774
ACGL,1.2418417,-0.18345086,1.8911213,-2.518492,-2.0065658,-0.16548015,0.50307244,0.22183551,-0.54523504,-0.17042845,0.7984512,-0.08321471,1.3633678,-1.6045184,0.42028892,0.031780727,2.963359,-0.9604767,0.6490175,0.79363525,-0.01733784,-2.1025338,0.19677415,7.054405e-05,-0.8790879,-1.4822776,1.8636031,0.9619892,0.026480867,2.8646765,-1.3045648,-2.3785617,1.9180423,-1.3212188,0.43308297,-1.2542971,-2.9739993,-2.3163338,0.47353905,1.8791736,-0.5468574,1.4390876,1.8306764,4.175627,0.73117054,-2.4969978,0.42656824,-1.4193753,0.20117487,-0.6136519
ACHC,1.2985239,-0.10557468,-2.0536618,0.6303196,-0.72651285,-0.42550865,2.0721378,1.2921399,1.402568,-2.2273452,1.07994,0.92733467,1.2440796,0.7472212,0.5032832,0.6072434,-0.9044217,-1.5996641,0.09268221,-0.6829679,-2.198142,-1.5116073,1.956624,3.380942,1.6226943,-1.0612361,2.3375509,0.056758862,1.1674137,2.2324247,-1.5036932,-1.1162468,-0.58326083,-1.249181,0.6045043,-0.038278144,-1.8396376,-2.167648,0.17492947,3.3784578,-1.6423901,-1.634975,2.743751,1.2713904,2.5738473,-0.019192027,2.4015322,-2.9109957,-2.8326993,0.28924945
ACHN,-0.5009704,0.8802454,-2.2262263,2.070902,1.2038659,-0.2606023,0.5530809,2.0938015,0.44075358,-0.25528178,1.1886548,0.54473287,0.63709486,2.1669226,-0.82382214,-1.7449709,-0.77132595,-0.6236888,1.8199482,-0.701823,-3.6810312,-0.40404293,0.57727605,1.0277537,-0.7401656,-0.09411278,2.9172316,-1.3252765,-1.8943113,2.2116117,-0.9266602,-2.1777508,1.8323746,-1.2078658,-1.1254634,1.856087,-0.5725715,-3.138757,-0.14301406,2.1412024,0.40546018,0.98694503,0.3762818,0.71804315,1.1975248,0.023652898,1.6723256,-3.1931713,-2.021676,1.4476614
ACIA,2.1734734,2.6350617,1.6282825,0.55476934,-1.777613,0.9762132,-0.7146486,0.8259692,0.7290586,-1.1249925,-1.0462662,-0.24425682,0.28746495,0.29006886,-0.8441997,2.2614949,-1.9840958,-2.908222,-2.0954604,-0.80191404,-0.455332,0.6841974,-2.5361118,1.3494143,0.38943034,-1.491529,-1.498924,-0.45410952,0.6289186,3.3620803,0.95664984,0.08934204,-0.9983405,-0.52466285,0.8670674,-0.27746367,-0.73683023,-0.34933862,-1.7153172,-0.20281899,-1.7969047,1.5611567,0.44081306,1.1788259,0.7293914,-1.7040364,2.5952573,1.6330887,-2.6223114,0.57877594
ACIW,1.0625476,1.8568931,1.3335792,0.42343387,-1.8631759,1.1963562,0.5960889,0.51609373,1.4992706,-0.34974718,1.0295576,-1.5166532,1.5950131,0.28876996,-0.46081802,1.4456841,0.21780078,-2.7354863,-0.5949285,-0.628413,-1.0912272,-1.8304394,0.29417032,0.44652277,0.6828421,-1.2750201,1.7132603,-0.22364238,-1.0201415,2.5219412,-3.3146894,0.035820752,0.62854165,-1.6987101,0.672747,0.19726823,-2.8580964,-2.3687558,-2.4836037,2.0677462,0.44970503,1.8430845,-0.61423546,3.2419229,1.4285876,-0.65834075,4.2819715,-1.6872758,-1.1653507,-1.8692491
ACLS,1.2666634,2.088843,1.3530504,1.5403085,-1.7630341,1.3660297,-0.5903909,-0.16838877,1.0865117,-2.6375396,0.23317426,1.3737967,-1.670137,0.45025748,0.64447874,0.99533963,-1.6337322,-2.6801493,0.4391952,-1.3996897,-0.6866167,0.52980554,-3.802132,-0.36986762,1.5175965,0.029893069,-2.6687186,-0.35842276,1.4258506,0.6553421,-1.3741441,0.99905986,-0.91131103,0.5038413,1.8665835,0.56672233,0.36203113,0.1448881,-2.0548604,0.9878073,-3.5173538,5.9210663,-0.9226837,-1.0002956,3.0277636,0.83786935,0.44806603,1.0816451,1.8355218,-1.0342642
ACNB,0.24533352,-0.6656517,0.3041992,-0.59553564,-0.13856374,-0.97094804,-0.7783026,0.3469189,-0.4277778,-0.09927826,0.8961646,2.3408928,0.9898448,-0.93870246,0.07438887,-1.3634576,-0.31419367,0.015525008,-0.54207265,-1.5951622,-1.320217,1.0403404,0.5099867,-0.13563552,-3.5928679,-0.88732773,1.7779511,0.4715383,-0.480114,3.7069762,1.918043,-3.03736,0.6137717,0.55435187,0.87038046,0.7270693,2.8666673,-0.5823287,0.9404362,0.8497396,-1.1464592,1.4439886,2.5426712,2.9094622,2.4668689,-2.4959023,1.335038,0.57817805,0.42175847,0.1940728
ACOR,0.9997184,2.4092498,-0.54736394,3.071804,-0.11461448,0.10147824,0.8490978,-0.63443035,1.1544826,-3.6176138,-0.26743704,0.51443505,2.2410567,-0.4547345,-0.15431301,2.41774,-3.1815598,-2.964312,0.17170098,-0.7041403,-1.1358876,0.96282136,-2.7697015,1.7097979,-1.4532591,-1.9436649,-1.0217679,-1.7013705,0.3522555,3.676856,-1.0916448,0.45941818,-2.5754328,-2.1556056,-0.282266,1.1055562,-0.54581326,0.11148699,-0.689913,-2.2073355,-4.095995,1.1968154,-0.89876574,0.5331719,1.6740334,-1.7984979,1.6046894,1.3944693,-2.6818335,1.2625793
ACRS,-0.39457586,1.0719019,-1.9171838,1.4883432,1.0196196,-0.63441306,-0.028004466,1.1746393,1.0036297,0.3011095,1.260392,0.33043003,1.1166401,-0.20891505,-1.4059459,-0.9545514,-0.42851794,-0.78164035,1.011796,-0.9645693,-2.9170187,0.18579893,-0.671093,0.7935784,-0.6599844,0.2266918,3.2339537,-1.3773651,-0.08520886,2.9124653,1.4021132,-1.4833626,-0.23811065,-0.58680046,-0.6300801,1.4054325,-0.22540788,-3.2946458,-1.3349124,1.5966384,0.5859764,0.52285445,0.65185016,0.09132276,0.45421585,0.85398346,1.3111088,-1.0979134,-1.8290186,1.103884
ACRX,0.63412184,0.65710264,-1.5231729,3.0939176,-1.7224514,-0.28842223,-0.9251802,1.5808696,-1.54194,-3.0667365,2.4713054,1.3085905,0.36868528,-2.7858508,-0.29100668,-0.8234687,-1.8938078,-1.5525857,-1.8484187,-2.5746331,-1.2974377,-0.29915452,0.30601242,1.8644037,1.811519,-1.260714,1.1339417,-0.5030181,-1.1127356,3.1636508,-2.0355394,1.8542292,-2.2137892,-1.3741361,0.38695082,-1.2561157,1.6781018,1.0149331,-0.6036044,2.8012867,-0.86320466,1.7306426,0.93967867,2.7246466,1.4111042,0.50013393,2.094507,-2.5953429,0.016373666,0.7412655
ACTG,1.3042458,1.2352415,0.0057203076,1.7036569,-0.77501106,1.2821186,1.551186,-0.1927323,0.8640375,-0.59399825,1.367522,-1.1102506,2.5476775,-1.0372113,0.7850338,0.8111721,0.7001054,-2.1911724,0.4777937,0.07570005,-2.7868536,-2.7896,0.53950924,0.5318368,0.75117505,-1.8151144,2.8711126,-0.16519023,-0.12832531,2.456123,-1.5314989,0.75729924,-0.5889034,-1.2502025,0.3693511,0.71742964,-2.2128265,-2.8474653,-2.9777555,2.9447606,0.2683662,0.63115406,0.2678173,3.0168984,0.56956446,-0.54466337,2.7846982,-2.185179,-0.94498783,-2.595023
ADAP,1.5482718,0.41194293,-1.2528703,0.81136197,-1.5474085,0.06848621,0.86678773,1.7231385,-0.14757514,-1.391758,1.9154121,1.4187313,1.36334,-1.9510322,-0.5726583,-0.4194488,0.3859962,-1.3511299,-0.18659087,-0.35310665,-2.7850912,-0.9573077,-0.67791694,1.3172101,0.6515316,0.19353688,2.6059377,-0.015594841,0.026491912,2.0896647,-0.22601117,0.59112567,0.4632761,-0.6973122,0.07968821,-1.3660021,-2.060084,-2.8290884,-1.0479487,2.059976,-0.5185955,0.43775597,0.12953255,0.71468914,0.7339467,0.86496335,1.4163715,-2.431565,-1.978985,0.73479575
ADES,2.6076927,0.049745157,-0.5865255,1.6281333,-3.173736,-0.09711642,1.6159236,-0.5725074,0.39568725,-0.7548864,2.17566,-0.16530056,1.9924309,-1.0782428,-1.0484155,1.1630858,-0.1973023,-1.3152535,-0.6285164,-2.669287,-3.398583,-0.4856232,-1.3336552,1.7004708,1.8305306,0.4373285,0.88277316,-0.7751482,0.22573358,1.3546703,-0.05886727,-0.5892448,-1.7598144,-2.381548,0.22639361,-1.289839,0.89902115,-0.59789896,-3.0443537,0.010633281,-2.6636653,1.9920306,3.0570164,1.8519138,1.6784388,-1.857957,3.020195,-0.8056534,-1.0630598,0.17470507
ADI,2.337634,2.6336362,-0.18004048,0.008273961,-1.9741553,0.82134444,-1.1100608,1.0320679,1.066865,-3.083941,1.1630996,0.7776427,1.7325412,1.4166869,0.10370988,2.389829,-2.5432818,-4.152731,1.1506053,-0.35936102,1.6357216,-1.6210148,-3.444344,2.8685305,-0.8555364,-2.1905568,-0.614249,-2.2970293,1.4805235,4.2229095,-1.1989385,0.47812057,-0.61775964,-0.97781825,-1.0665098,0.24547549,1.4281497,0.8311423,-0.29016438,1.1103652,-1.1421013,-0.42851773,0.48243833,0.17890815,3.3874052,0.9790674,2.88175,2.1123745,-1.1154063,0.61281747
ADMA,1.9341762,1.657575,-0.28970158,-1.00731,-2.3358545,0.6445875,-0.71851945,0.39270312,1.7166702,-3.6702409,-1.2807149,0.30563852,-0.51054204,1.9102514,-1.3189929,0.61842823,-3.9052527,-2.612563,-0.27463832,-2.4557972,-0.26439783,-0.85010344,-1.2745281,2.580673,-0.93098366,-1.9292611,-2.5928016,-1.9295157,2.055443,2.4952972,-0.79453313,-0.64023125,-1.5133107,-1.417357,-0.9469699,0.48192275,0.5850393,-0.7564679,0.65472573,0.15218562,-4.184318,-0.5585341,0.863352,1.1535407,1.7918894,-1.419243,3.454535,2.132034,-3.034656,0.5778142
ADMP,-1.6422958,0.76579326,0.4427533,1.5082088,0.16874793,-1.2473768,0.47912163,0.36643165,1.1005632,-1.67082,1.008609,-0.623366,1.2488632,1.5231538,0.62904334,0.19766156,-3.8331783,-0.6483355,1.1849763,-1.0038253,-1.5431987,-0.92986965,0.32798132,0.98041,-2.1855006,0.10050598,2.0180728,-1.447697,-0.7139292,2.1897418,3.4207554,-0.43294126,-0.6377061,-1.0142664,-1.1311008,1.0169822,0.08271193,-2.3999028,-1.5134368,0.87630504,-0.51441705,0.7610713,0.96057475,0.46875116,1.3273522,-2.498493,2.9067905,-0.77934724,0.3585425,-0.7205325
ADMS,0.07854621,1.6960869,-0.3509562,4.1099944,-3.0192025,-0.3495045,-0.34931654,-0.40937847,-0.9494792,-3.1171415,1.5871909,-0.09562331,1.9443139,-1.4657981,-0.69962966,0.58047307,-0.5861753,-2.0528247,-1.4029533,-0.84863466,0.8618352,-0.79678124,-0.614242,1.5313174,0.7579244,-1.6240772,1.3408135,1.266388,-2.4469554,3.372032,-0.54133606,2.3347888,-2.619454,-1.741395,0.9069866,-1.267449,1.5560043,-0.5114554,-3.0116177,1.4428382,-0.8747131,2.6759107,-0.16309685,2.6098492,2.3851388,0.95312667,1.0800686,-1.6670473,-0.627292,0.19125351
ADP,2.0316446,1.6639575,4.005197,0.6012923,-1.4908524,0.3052805,-0.30675238,1.4811829,-2.277415,-2.6488004,0.61353445,0.22232226,1.1004485,-3.3674152,0.6898117,0.38165867,1.4100479,-1.7483085,0.81595665,1.3782806,0.1438197,-1.8072819,-3.032507,-0.33536178,-3.3448055,-1.9581484,-2.604093,0.56656104,0.094021924,2.3779435,-1.4407326,-0.60590196,0.5575517,-0.8980934,-1.2072386,-0.3857956,0.14788428,0.88500834,1.3906635,0.092550516,-1.533715,1.6725681,3.25123,2.8966424,2.0889616,-2.2874444,-1.7357398,1.542576,-0.0886682,2.2894442
ADRO,2.1906226,1.4852288,-1.8195343,1.3461665,-2.3076007,0.6956335,1.5330198,0.7548739,0.19309776,0.66219515,1.8612051,-0.17674603,1.0340146,-0.19705915,0.16055441,1.3668028,0.9298032,-1.2425178,0.00446931,-1.4132158,-1.6557852,-2.0193627,0.004564612,0.9652892,0.93583864,0.42842197,3.4857483,0.2683229,-0.4305328,2.387467,-1.9506786,-1.0693301,0.72571856,-1.9009053,0.78233033,-0.9299248,-1.3526313,-2.4796815,-1.3099086,2.231906,-0.71984994,0.36241633,1.231234,2.0238507,0.6164475,0.10117952,2.7077837,-2.6518912,-2.405608,-0.3851082
ADSK,1.232719,1.9340342,-0.1382692,1.1927372,-2.4681451,1.4075258,0.4532451,0.1213118,1.7646799,-2.457398,1.3849484,0.9565124,0.45381346,2.6445398,-0.32601538,1.9780834,0.4053633,-2.8124616,-0.35824087,-1.9854138,-1.2026277,-0.81364286,-1.7531967,2.9119456,-1.9995866,-1.4035995,-2.3687346,-1.4527841,1.3522086,3.296605,-2.093352,1.8091816,-1.648127,-1.5279348,1.5884427,-0.17664391,1.1709539,0.59459126,-1.9066396,-0.96465784,-2.2397742,1.5641508,-1.263557,1.7146403,3.4825583,-1.5648565,1.6322801,3.4530885,-0.7252637,-0.21702471
ADTN,1.7921704,2.7074482,1.6271021,3.4452932,-2.382779,0.6239562,-0.08735594,0.12430437,0.62901706,-1.4276971,-2.5488176,-1.0067027,1.8287745,-0.4241835,-1.0993145,0.28763872,-0.70326686,-3.1874099,0.41886297,-0.44145465,-1.7636107,-0.25002855,-3.2769883,2.6833608,-0.08150293,-1.4662088,-2.2807739,-0.7251608,-0.2803008,2.3779364,0.117386535,1.8132217,-2.562071,-1.8569906,-0.068131916,0.4049177,-1.0602387,0.9731086,-0.37060964,0.18534541,-2.2506192,2.452453,-0.8725361,1.0117445,3.7842588,-2.1367748,0.27977526,2.0291905,-2.017088,0.15242912
ADUS,2.1481218,3.0535393,-0.2287545,2.8800254,-1.337,1.8878354,-0.5654106,1.0711031,1.5798632,-2.1075947,0.1873797,0.056918617,0.55091286,-0.16311327,-1.0490528,-1.1288874,2.1443985,-2.858596,-1.4649851,-1.1962765,-1.4478264,0.5074047,-2.2314208,1.6607091,0.4112406,-1.4525013,-0.3544848,-0.61721087,1.9853978,-0.30973536,-1.8917768,0.59705234,-0.61451304,-1.2430546,-1.2089726,1.0443172,1.456811,1.1504898,-1.1980404,-0.30463004,-2.3904395,0.8773694,0.867179,1.2054003,4.593893,-1.0132895,-1.3128785,1.5175447,-2.6521113,3.155679
ADVM,2.180596,0.9761734,-0.80346143,0.32806808,-2.5750768,1.3926477,1.5047239,-0.42718187,1.0292442,0.43063253,-0.225711,-0.8002322,1.8744597,-0.022073824,-0.012495278,-1.0568092,1.0379893,-1.8192767,0.4292977,0.0025276022,-2.7945945,-2.3336806,-1.0170728,0.74494416,1.8769225,-0.9598762,2.5319903,1.4207207,0.4978603,1.3383665,0.67112327,-0.25368136,-0.10224027,-1.4958739,0.82542795,-0.06058083,-2.4601367,-3.3042467,-1.2673396,2.6946037,-0.43720925,-0.5046338,-1.3213121,2.9272094,2.2294686,-1.1266074,1.6517005,-1.4857131,-2.6623273,0.22702558
ADXS,1.1965528,0.6934832,0.82083875,1.876695,-2.7208385,-1.1253003,-0.06007881,-1.3900559,-0.16589724,-0.7697798,0.43811715,-0.97243613,2.0629287,0.1431512,-0.45945212,0.9160074,-2.428345,-2.896427,-1.3367943,-1.6344808,0.12074344,-0.031809956,0.113377765,1.2688577,1.540438,-1.3098681,-0.9130982,-0.04924047,-0.9376408,1.7700123,2.9205253,0.05864062,-1.7960073,-2.309032,0.043171834,0.8266881,-0.2400311,-2.3202431,-1.8492712,1.0449688,-1.4600434,2.2308762,1.5359143,3.2322962,1.6353686,-2.2681413,2.2786112,-2.3956213,-1.5161052,-1.058784
AEGN,2.739313,3.4617078,1.9234967,0.48765954,-2.821656,1.5113374,2.0371106,-0.98230934,0.29898703,-1.572903,0.018901002,-1.7909993,2.2869515,1.7998346,-0.048667163,1.0419328,-2.3046055,-1.8262,0.5872562,-0.048293833,-1.6948583,-0.3755518,-3.9361014,1.7200531,0.15510137,-1.1874931,-2.15635,-2.419881,1.6726797,2.3641396,1.1945341,-0.98121476,-0.27147275,-1.4305663,-0.08043012,-0.6572485,1.3174862,-0.587428,-1.3574392,-0.64818573,-3.7595444,0.029961996,0.894673,0.7220227,2.5790868,-2.4847212,3.443251,1.0746443,-2.080035,0.71917117
AEHR,0.88752663,4.2056623,1.0487993,1.8766532,-2.9429064,2.1884162,-0.8614026,0.14463398,0.7903026,-0.6039878,-0.5657057,0.798709,2.0177574,-0.5192643,-1.0067018,1.1395915,-1.8484317,-0.92617214,-2.584031,-2.1453729,-2.6735253,0.83655196,-1.4052565,1.3176028,-0.7962864,-0.402781,-2.4991643,0.95868653,1.6082852,4.091647,-0.8830318,1.5511637,-0.065539435,-1.6032668,2.9154456,0.19433561,1.1507766,0.5819496,-1.7107546,-0.062288407,-2.2166407,1.5364727,-0.9884452,2.8160567,2.8448644,0.09781708,1.8344766,1.9657873,-0.81117475,0.030404031
AEIS,0.74588,3.7183943,1.0450436,2.0893042,-2.8698232,1.6570258,0.6302447,0.53996587,1.477416,-2.6727118,0.03656472,-1.7128221,0.059307914,1.4233985,-0.009487104,0.5318814,-0.28324714,-4.1079583,1.1329961,1.1567842,-0.034056664,-0.10645243,-3.273964,2.5194187,1.4121002,-2.625065,-2.585873,-1.6160127,0.63936925,2.0404818,-0.9951508,0.8157948,-2.1258142,-1.3677768,-1.6558714,-1.0814111,2.2414122,-0.27488828,-0.32534382,-0.5165152,-1.8898247,1.9269783,0.021300718,2.3424416,3.5641983,-1.7032391,1.5705506,2.2700655,-1.5083776,1.1218841
AEMD,-1.2980703,2.100555,1.1792142,1.3043033,-1.7920618,0.98851174,0.4071127,0.26453888,1.6496238,-1.0731177,-0.21555871,-3.1668873,1.0965863,0.015409007,1.0494248,1.0139141,-1.1454498,-0.81252515,1.3814082,0.3862765,-0.7798677,-3.1127384,0.4236458,0.25374952,-0.57254916,-0.20393011,3.2745621,0.25394708,-0.79617095,-0.049492408,0.7054047,1.2622545,-1.631968,-2.864806,0.5457389,-1.1004764,-3.3153043,-3.0804706,-1.1797426,1.7176872,0.18847035,0.70803225,0.96731174,1.7695584,1.0166059,-2.0007272,1.9518436,-1.7772092,0.60348463,-0.1959793
AERI,-1.1110419,1.2517824,-1.1687876,1.9757215,1.2636602,-0.4939648,0.22036849,1.488354,2.0493112,0.19653906,0.41312993,-0.015717357,-0.09632197,2.1483686,-0.7461329,-1.192137,-0.60698235,-0.68198675,2.2082672,-0.0083009135,-2.3882325,-0.42667148,0.86026734,1.7922683,-1.7577357,-1.1896763,4.064187,-0.011480641,-1.9258987,3.200314,0.2738853,-1.7120849,1.3763729,-1.2560062,-1.2477425,1.3832333,0.4340051,-2.9892428,-1.724379,2.105558,1.1496812,0.6050269,-0.400557,1.4285945,2.0249803,1.1354066,1.5229684,-0.6746583,-0.5111524,-1.0147105
AETI,2.6522913,1.6956098,1.7479433,1.9989498,-3.1263974,0.93093324,0.14826624,0.98181695,-0.5692546,-3.0239334,1.0547358,-0.66918296,1.7896627,-0.969797,-0.18183003,1.746198,-1.3476921,-2.7356517,-1.0839553,-0.8289315,-3.4983456,-1.2307235,-5.3000956,0.964664,0.53733313,-1.2837132,-1.3023251,-0.57566106,1.9227275,0.94897735,-0.11018581,0.49664626,-0.76006955,-3.2247488,-0.5060059,0.4104535,1.3078816,-0.09776336,-3.1664844,-0.19097237,-0.16461585,1.9576843,-0.0576019,1.15639,2.377713,-1.3602737,0.37631813,3.0778136,-2.111635,1.918923
AEY,1.1216897,1.798717,1.5689359,0.8029332,-2.6117332,0.89416915,0.4902546,-1.433264,1.2672955,-3.5425339,-0.36842906,-0.6393411,1.1256685,1.4791197,-1.5293138,0.9176121,-0.5158778,-3.2936265,1.3269116,0.7291701,-0.53656435,-0.46293664,-4.5198116,1.2112235,2.0713704,-2.455906,-1.6425909,-2.439613,1.1900876,1.791201,0.054414477,1.9910893,-1.8576032,-0.5673806,-1.8805919,-0.20635833,0.3492375,-0.641468,-1.1504289,0.43393072,-1.9882103,2.2820187,0.3519988,1.6694728,2.7031925,0.47270083,0.22511292,3.261842,-0.69186443,1.9682599
AFH,1.6349251,-0.16732323,1.1593941,0.80871457,-3.9268005,-1.1759363,-1.0737756,1.4702765,-0.24792494,-1.7797173,1.8318413,0.3189232,2.407958,-1.6575453,-0.62717766,0.052468967,-2.1881905,-3.088791,-2.7234251,-1.1365154,-0.8019002,0.59617543,-0.9944229,2.8179023,1.2808685,-0.05219264,1.5749693,1.9580282,-0.63536805,2.8958845,0.38799557,0.6935882,-0.025722431,-1.11123,1.836793,-1.1162521,1.6143012,-0.69140637,-1.5284551,1.5429748,-1.94601,1.1593741,-0.4539622,2.2614648,3.4652238,-0.714361,3.1731198,0.03825766,0.22285032,-0.52030605
AGEN,-0.13478167,0.66345197,-1.8866854,0.110235535,-1.9085346,-0.097433515,0.46330762,0.20987216,1.7668906,0.25867647,0.4525121,-1.6999345,1.6552309,1.2598994,-0.35214978,-0.818454,0.9025079,-2.0435102,-0.3930327,0.15356103,0.2610068,-3.1275854,1.3470628,1.3732613,1.2515264,-0.12463377,1.8697957,1.4404095,0.12620452,3.6676972,-2.1188824,0.8036855,0.6617479,-0.41323462,1.2557827,0.0052450285,-1.8992275,-2.1949325,-2.1207817,3.1661763,-1.5592103,0.2874788,-0.16451623,3.4471848,1.769906,0.13043454,3.1714451,-0.99766237,-1.0517365,-2.5546596
AGFS,-0.31020844,0.53161776,-1.4128767,0.80933833,-0.07331784,0.55457383,0.015811028,1.0412364,1.014262,-1.5111576,2.895709,1.0679765,-0.6323666,1.8411968,1.1896758,-0.84348845,-2.348002,-1.5091093,0.6851161,-0.7989167,0.8155115,-0.8811852,-0.7784228,-0.4132351,0.72323316,-0.8135184,-0.18006831,-1.4303197,-0.20669083,1.0742335,1.2358263,-1.7768266,1.7440758,0.19856861,-1.6311928,3.1177456,1.3110934,-1.5048413,-0.20151378,0.11235658,-1.8555579,0.5085493,1.2299083,-0.06949038,1.4520044,0.3121267,2.0984795,0.06985382,0.11636913,0.3127175
AGIO,1.4112293,0.33576167,-0.32638335,0.5385252,-0.8810744,1.3168416,1.0066016,1.215687,2.3194392,-0.024780095,0.22540659,-0.7613893,0.729416,0.46478564,0.49024194,-0.95563245,-0.54628396,-1.7035676,-0.2880757,-0.62918717,-1.3520716,-2.5826638,1.9875029,0.6221116,-0.54017884,-1.6127008,1.3754987,2.1898174,0.071967386,3.6539447,-2.0498257,0.34219784,0.69251513,-2.776282,2.177852,0.31797633,-2.0885763,-2.8664017,-0.36874244,2.552632,-0.30092865,-0.73876196,-1.6578816,2.326362,1.188624,0.7381035,4.1632895,-3.1366909,-0.7632654,-0.7196827
AGLE,-0.1389932,1.045164,-0.5607772,1.3219122,0.9992341,-0.74358153,-0.17846559,1.4889728,0.9551214,0.71116066,1.1390674,0.3626087,0.85090786,0.23260282,-1.6157032,0.014121738,-0.19472869,-1.2652531,0.43951923,-0.28993765,-2.0684392,-0.21988182,-0.887417,0.0980884,-0.48813117,0.18748057,2.802596,-0.78935945,-1.5252829,2.4814231,0.8139342,-1.4767332,0.45998183,-1.2884195,-1.193146,1.2318939,-1.1849521,-2.759776,-1.3143585,2.2696414,1.0457352,1.1378111,0.46923468,0.38614392,0.47807676,1.2254676,1.1121794,-0.6310899,-1.450264,1.0732086
AGNC,-1.0252271,1.1538854,0.3640061,-0.8742969,-0.7751332,0.23987888,0.5693781,-0.015959624,0.2916588,0.3109277,0.27144742,0.017005485,0.58862096,-0.69399536,-1.1454579,-1.0964856,3.084538,0.5359516,2.547437,0.99549776,-1.7096032,-0.44123548,-0.042856317,-0.10596514,-1.0596474,-1.1441444,3.5476239,0.19947134,-1.8415189,2.1698086,1.058769,-3.6209369,0.8718409,-1.3491693,-1.4305595,-0.290625,-0.7395199,-3.3166285,0.71026623,1.6472377,0.36512426,1.5111178,0.6165978,2.6476436,1.6156149,-2.1762052,-0.98765266,0.2737261,-0.39589033,0.038699664
AGRX,-0.07740395,0.84898734,-0.6303149,1.3705829,0.4749626,-1.7129254,-0.08723748,-1.1406204,1.3759995,-1.6865449,1.0970845,0.08154343,-1.5602376,2.345254,-0.45615187,0.014993952,-1.5835041,-0.8217295,1.0418866,-1.2096372,0.3988483,0.17220901,-1.3931235,0.3097669,1.3668791,-0.844551,2.0214293,-1.6156576,-2.6410513,0.63391554,2.899637,-0.60457814,-1.4932988,0.72705495,-1.2472802,2.4825547,1.22443,-1.9829648,-2.287159,2.3895867,-1.1088991,3.5351174,1.8932724,0.53492504,1.558383,-0.1841997,0.5994792,-0.31908652,0.07781971,-0.41958633
AGTC,1.701041,1.2371005,-1.720827,1.2066767,-2.388904,1.0278445,0.30883384,0.63906246,0.960433,-0.4654751,1.6309612,-0.21906514,1.3908165,-0.09584497,-1.1442188,0.6638999,2.243892,-1.6356361,1.3929627,0.83101845,-1.9354442,-1.3105016,-1.0643051,2.2892222,2.0853362,-0.81072503,3.2735696,1.7169725,-1.3334244,2.4356644,-2.530109,1.3424033,0.21356714,-1.995396,0.35693,-0.94139844,-2.1970155,-2.236672,-0.8491843,3.4281344,0.87319946,0.9597285,-0.6287846,1.8000962,1.8756257,0.4953277,0.57372487,-2.0311909,-1.80238,1.664105
AGYS,1.459859,0.57788587,-1.3259383,1.2521007,-2.0367491,1.4227947,0.597281,1.6132131,0.52801126,-0.92821896,2.179229,2.319372,1.3951725,0.48296812,0.41466695,1.96877,-2.4438632,-3.6742325,-1.635946,-0.3313961,-1.3299367,-0.30531704,-1.4169356,2.1876125,-1.6299099,1.519761,-3.5802457,0.25106055,0.5585529,2.7838736,-2.978814,-0.28748357,0.9070114,-1.5907912,1.2116193,-0.42359087,2.2174535,1.6003797,-1.5601112,0.26476485,-2.5709682,0.77553904,-0.6454053,1.410465,4.156909,-1.0273658,3.460925,2.0143943,0.020726165,0.8269547
AHPI,1.3572311,1.1102288,-0.75295645,3.9344296,-1.6060649,0.6447612,0.9691809,1.2622384,-1.2839324,-3.2355573,0.15018697,2.1063101,2.150065,-1.059979,-0.57865876,-0.61870486,-1.7244779,-3.0866382,-1.6525526,-1.9070295,-2.7027388,0.8899842,-1.6469166,0.61884004,-2.106197,-1.3952211,-2.0536788,0.090110116,1.3626997,2.769056,-2.1674013,1.5476701,1.1218548,-2.7465558,-0.31274152,0.07995051,1.2921726,2.7391243,-0.82050043,0.616242,-1.7789633,1.9714804,-1.1151758,-0.30031663,4.510227,-0.71521145,1.5308901,0.50785184,-0.31621015,1.5972886
AIMC,0.7473638,1.5258888,-0.5510736,4.5791907,-1.0441557,3.2833745,0.65450156,1.5994779,-0.6838151,-3.0091653,0.48590592,0.22864638,1.5909317,-0.529067,0.9835861,-1.2250704,-1.106829,-2.1305828,-0.10062314,0.13380474,-2.7428951,-2.3348415,-1.4699491,0.8207775,0.027274292,-2.2461088,-1.9981331,-1.6279217,1.9085937,3.4034314,-1.9227204,2.0040166,-1.0162966,1.1192795,-0.8944282,0.051582105,2.640119,1.9252206,-2.3559384,-0.14797156,-2.0156431,1.8421073,-0.6572054,1.7360867,2.0947933,-0.8035399,1.809881,1.4813529,-1.3216811,-0.81094146
AIMT,0.0596172,-0.50788,-1.7875582,1.0135888,1.2002016,-0.8247706,0.44759,0.6750379,1.6652423,0.87340045,0.96425354,0.75633204,0.25993222,1.4587878,-0.9133221,-1.8506739,0.14274046,-0.52935207,-0.0032581654,-0.25108448,-3.8309653,0.005250791,0.58903515,0.8499286,-0.49880266,0.79234785,2.6856499,-0.035796035,-1.5045333,2.9970791,1.94077,-0.9477524,1.1580899,-1.1598585,-0.87390953,1.4365474,-0.20879167,-3.7754216,-1.3729366,3.105872,0.69318616,0.9558257,-0.24939741,1.9455758,1.119554,0.090440825,1.7864008,-0.97308075,-0.18760869,0.20981999
AIRG,0.86661243,2.0573878,0.71584886,1.1202234,-0.81585675,0.15900274,0.64208853,0.8946084,0.4718572,-1.7163922,0.21132651,0.6707641,1.0048386,-0.7899294,-0.9087528,0.25322458,-2.5531988,-2.7473295,-0.87299037,-1.271014,-0.4477741,0.5774652,-2.429378,1.3081963,-0.964776,-1.0724223,-2.0982914,-0.9485158,1.3234525,1.9973674,1.0018498,0.3091232,-1.5734918,-0.14645472,0.0049583595,0.37859786,-1.2603242,-1.3800092,-0.39152682,-0.82366914,-2.8533,0.93280107,1.2378312,-0.1699232,0.62037003,-1.1221838,2.0888135,0.39378956,-3.345173,2.2333074
AIRT,0.99900717,0.38834235,-0.47851193,0.37235746,-1.5484276,0.8191618,1.1551994,2.3868067,1.1378443,-1.0659608,1.9295461,-0.3007673,1.182171,-0.8615831,0.37731293,1.1410623,0.10403032,-1.6802704,0.18167345,-1.0914024,-2.6664376,-3.0480072,0.6335614,1.86991,-1.0009074,0.9280424,1.8459805,-0.023317408,1.8851291,3.0881555,-2.0319495,0.20202842,0.98352504,-1.1289165,1.7158667,-0.88197213,-2.1848497,-2.9890954,-2.0332417,2.7139316,0.012933007,0.12842065,-1.4069636,2.2715983,1.4967602,0.76216286,3.2050238,-0.9318624,-1.3734705,-2.452116
AKAM,0.78482443,1.0258301,0.8189073,2.7368546,-3.9901342,0.4561759,0.20706488,-0.9791957,0.9297801,-2.4385686,1.2211715,-0.6226552,1.8249726,0.08372151,-0.6907428,0.37803414,0.43431488,-3.7959704,-0.8876372,-1.2507639,1.1036392,-0.66742694,-0.115315706,2.9702682,1.9453452,-2.1744256,0.9834153,-0.15172164,-1.9625771,0.8790007,-0.89173126,0.23088501,-2.673036,-1.4700904,0.5754154,-0.5918595,1.4547282,-0.79838955,-2.2492645,2.6470973,-0.33054042,1.8821216,0.54855794,2.9724178,3.624043,-2.3777382,1.8575301,-0.1477877,-0.7162051,-1.0407267
AKAO,1.640632,0.33778498,-1.0865508,0.53138953,-0.7791773,-1.0709735,1.8213093,1.8608011,2.6518536,-0.87676966,0.7298226,-0.0974649,2.0226424,-0.43803805,0.588354,-0.7771159,0.9513317,-1.1634666,-0.29829448,-0.21237308,-2.967018,-2.042439,1.1667857,2.8704195,0.7193942,1.3148639,2.0841339,1.7113754,0.63911915,1.916184,-1.502253,-0.77525043,0.36376178,-1.4481249,1.0938028,-0.63420445,-3.2774413,-3.1770227,-0.6853318,2.6903965,-1.021519,-0.19988279,0.016675794,2.350104,1.1682545,-1.0168071,1.937051,-1.4092811,-1.4420776,-1.5598513
AKBA,-1.1556368,0.38955143,-1.1831237,0.4417275,1.7831346,-1.0221795,1.1506329,0.96232253,1.9287469,-0.029796582,0.88095385,-0.040904507,-0.47746772,2.9124262,-1.2273641,-1.8763059,-0.52482015,-0.21687894,1.6266282,-0.3730321,-3.3466132,-0.69348663,0.8910096,1.6687626,-1.0877578,0.3801566,2.5571532,-1.0134833,-0.98727703,3.0824604,1.4558228,-1.7956026,0.6920483,-0.33908764,-1.0168567,0.98942506,-0.9959945,-4.5424523,-1.2603514,1.9477792,-0.086171076,0.1770028,-0.64509064,1.1895952,1.2295032,-0.6842833,1.6403432,-0.94847775,-1.2147359,-0.57207644
AKER,-0.9909912,2.157286,0.35615093,2.851396,-1.3402942,0.5262157,0.8002164,0.10548672,-0.006966242,-3.7944498,0.90846956,-1.0531418,3.810757,1.1766611,-1.6320268,1.1843387,-1.8940995,-3.984748,1.7329483,0.34249416,0.684719,-1.3293324,-2.514203,1.6121198,0.36346036,-2.532692,-2.1712236,-2.1781218,1.3693027,4.545982,-0.98979294,1.3433822,-3.108805,-0.8184776,-0.121431015,0.30476525,0.4648329,0.4480308,0.31936118,0.73973876,-2.429761,1.2155855,0.20119844,-0.40098584,1.9157975,0.78522325,1.4576997,2.0347884,-1.1638435,1.068983
AKRX,1.1385168,2.3046498,-1.1652211,2.3063323,-1.8299627,2.2665136,-0.16355295,-0.66802984,1.952752,-3.0067954,-0.00024497116,0.11357684,2.4858859,1.2594856,-2.2664397,0.35013536,-1.3044658,-1.5320297,1.3386257,-1.0074949,-1.1933966,-0.80369854,-2.0897362,3.1599314,0.33828402,-1.879811,-1.5823052,-3.240612,2.8634999,2.8244193,-1.889478,0.7018533,-2.2116592,0.42533153,-0.07361505,-0.58566886,1.9743193,-0.0005039553,-0.45096776,-0.40800723,-2.3716893,0.772746,-0.14706989,1.2238231,4.6567755,-1.7939827,1.6991202,2.4120178,-1.3141903,0.5984582
AKTS,-0.5699517,1.3217196,-0.4114741,1.2606504,0.31306154,0.011457893,0.078781776,1.8650818,2.4252315,0.15041374,1.3234607,0.32571664,0.91313237,1.6787201,-0.861067,0.21621184,0.4817703,-1.7785306,1.16203,-0.8947748,-2.2197325,-0.24464828,1.2772875,2.313099,-0.68147147,0.0033958198,4.066668,-0.80112684,-1.70368,2.6254382,-0.13852741,-2.2240746,1.8070022,-0.62425935,0.14140446,1.5536962,-0.035701938,-2.7994478,-1.5834073,3.3788319,1.8780667,0.70395935,-0.6347046,1.9617329,1.7412869,0.1115137,1.3139609,-0.49422327,-0.13943002,-1.1832547
AKTX,-0.011109302,0.9544181,-1.7908869,1.9973241,1.1666313,-0.4957966,0.1422327,0.60324436,1.7285906,0.2691373,1.9630578,-2.3688657,0.66336226,2.0454164,-0.077539004,-0.5712671,-0.22133473,0.3280587,1.4651241,0.62530386,-2.4314723,-1.2227795,0.40166086,0.16761245,-0.34936053,-0.36408156,2.5919557,-0.3950038,-0.8675212,2.8092618,-0.6261743,-1.1091386,1.4950397,-1.5382428,-0.8990826,2.1077108,1.2278147,-1.7525824,-0.44388464,1.1501176,1.053417,0.020763239,-1.4878457,1.0889462,1.2420384,0.31886297,0.9599463,-0.090913005,-0.61493224,-0.10048705
ALBO,0.031638548,-0.3737149,-1.989862,-1.6236326,0.07331617,0.26734158,-0.38785532,-1.1358483,0.8388569,1.1724299,0.72852093,-0.7431329,1.1124592,-0.3958059,-1.1175662,-0.8174646,2.1329796,1.0519375,2.654517,1.6337016,-1.5313444,-0.91535836,0.06627528,-1.1535215,-0.70971483,-1.088358,3.514895,-0.054238565,-0.65020645,2.7832842,0.38859746,-2.446841,1.3735367,-0.94317156,-0.5825393,0.9260929,0.17230129,-3.16392,1.2035306,1.7331777,0.37236187,0.7066127,0.96983075,2.66527,1.8470933,-2.4528644,-0.12947151,-1.0963856,-0.4234937,0.6724254
ALCO,1.1065055,4.3845916,-1.2013294,3.1896145,-4.1725645,1.3641552,1.4623553,1.1337476,2.0898297,-5.5082026,-0.073308155,0.26872817,3.7035196,-1.2342508,1.2762347,0.016134832,-0.62295395,-2.7020185,-0.3834276,1.3485771,-2.404522,-0.94115597,-2.4282863,1.2405212,3.030551,-0.18389152,-2.0707965,-0.2115863,1.0742791,5.3076496,-2.5223992,0.9295616,1.6884117,-2.6424975,-1.2793713,0.7324792,4.193094,1.0611395,0.46955445,0.35175103,-0.7914994,-0.3907989,1.1430105,-0.93992674,3.4855933,-1.9113914,0.6337871,2.3611078,0.32944614,2.0302143
ALDR,-0.50424945,-0.14025164,-1.3806338,0.2712878,-1.4682641,-1.2459111,0.07068382,-0.10507895,1.7663674,-1.3908206,1.9420832,-0.5082725,0.1445231,1.1716975,-1.5019784,0.049742475,-1.6770661,-1.1709187,1.3801063,-2.1794755,-1.7788328,0.43280974,0.44019127,1.914496,0.0681957,-0.5013666,3.3396943,-2.2181458,-0.26093712,2.6949987,1.7065403,-0.937139,-0.43558052,-1.927433,-1.1311488,1.0369804,3.8606033,-2.513696,-0.7817697,3.0415359,0.085601084,0.9807407,1.6127707,1.1772614,1.46977,-0.4740864,2.3029194,0.016509721,-0.33388945,-0.7800915
ALDX,-0.601425,0.86488855,-0.52794904,1.8037655,1.2948462,-0.8354621,0.6825887,0.5035689,1.498312,1.5285422,0.2812819,-0.5277064,-0.29675895,2.5594232,-1.1797794,-1.3396833,0.49997953,-1.6534902,1.507301,-0.02955509,-3.0034978,0.1493181,0.42563573,1.5175793,-0.7973079,-0.5818255,3.0257535,-1.4164714,-1.7621992,2.0109189,1.6865212,-1.8542103,1.7991151,-1.1535985,-1.3402778,1.7227577,-0.7905273,-4.2585535,-0.99282765,2.4705102,1.1906762,0.9017365,-0.66343623,2.2495399,1.8264812,-0.4558431,0.8939572,-1.0919487,0.07259508,-0.37369004
ALGN,1.6498284,1.3125383,1.6919042,0.8611979,-2.3607621,2.0551412,0.44975168,2.0852823,1.7725778,-2.6384084,0.356478,0.5270206,1.1829447,3.0203393,0.27535036,2.0020144,-0.51962227,-3.6383352,0.83633614,-1.3980306,0.32900107,0.8844347,-0.11943585,3.6064694,-1.9985951,-2.6570048,-0.69144887,-0.6706671,1.8578144,3.4130306,-0.849544,-0.47266313,0.8286309,-1.1452901,-0.17705494,0.5925644,0.60899943,1.6220357,0.5288375,-0.55873764,-3.8679333,0.55255777,-0.558498,0.9771923,3.1738465,0.43820825,3.8049667,1.976548,-1.9226578,0.27956113
ALIM,1.9087492,2.140785,-1.603571,0.04160825,-3.1657646,1.4511285,-0.19786006,1.3036875,2.2334335,-1.4872748,-0.3103287,2.1892407,1.286597,0.49118093,-1.2813855,-0.7497452,-3.2127838,-3.070638,-0.9903052,-2.4850054,-2.6820297,-1.0288905,-0.8608659,1.4807308,-1.119426,-1.4989985,-3.4372253,-0.90492964,1.6117861,2.774468,0.18102337,0.5234816,-0.8644546,-2.8754373,2.5345128,-0.18240602,1.8984795,0.2493576,-0.14250281,-1.4025078,-3.0183725,0.3836582,-1.5626324,1.5391806,2.6334143,-1.6157576,1.5297161,1.5120808,-0.5029583,-0.41569215
ALJJ,0.78802615,0.69551736,-1.340953,0.7635729,-1.1347601,-1.0126034,0.49159598,1.1944252,0.36188346,-0.6673199,1.2978432,-0.6289309,0.621869,-1.595661,-0.9517096,0.20987593,0.6098498,-1.4021668,-0.4463812,-1.0781057,-2.1726208,-0.33733246,-0.8216509,1.1021122,1.812329,0.28720415,1.760047,0.33572257,0.68951184,1.0106071,-0.15908484,-0.21624988,-1.3539435,-1.2737895,0.41756466,-0.53744185,-2.1476235,-3.276944,-0.9150837,1.559183,-0.7606584,0.8145339,1.0225238,1.3060418,0.15909714,-0.5961672,0.84783804,-2.0654254,-2.7849236,1.9909793
ALKS,1.5388325,-0.88244396,0.43061823,0.62747365,-2.9659328,-0.9758669,0.14845368,-1.4380475,1.2115793,-3.201648,1.5759709,1.7823045,-0.94888645,-0.21480495,0.039386056,-0.08264157,-1.1671525,-1.5204265,0.03282793,-1.3327183,0.33587673,0.18621324,-1.9093101,1.0042051,2.5191615,-0.06163534,0.7922903,0.08224687,0.081653066,-0.5181738,0.12060825,1.3773084,-1.6582258,0.5708765,0.46514744,0.04087517,0.6937019,-1.9144719,-1.7667084,3.1942158,-4.185542,4.1946874,1.5451044,-0.20340033,3.659357,1.4953365,1.0020043,-0.5860791,1.0465647,-1.0559579
ALNY,-0.2706343,0.11307199,-1.2571154,1.074923,1.5187054,-0.53588974,0.6597297,0.54608274,1.7769046,0.068522654,0.6516827,-0.3680846,-0.06749702,2.6197746,-1.124244,-1.9488279,-0.6013644,-0.44583336,1.9668729,0.56597906,-2.9534652,-1.0636995,0.5117842,1.2505964,-0.44679362,-1.1145861,2.8198729,-1.271505,-2.6202385,2.2995963,1.5606256,-1.6296091,1.1580653,-1.6877216,-1.7256619,1.4977095,-0.4370985,-4.091653,-1.1140629,3.4504936,1.2314119,0.7879522,0.38858664,1.3360064,0.41984966,-0.2192543,1.4002807,-1.6706406,-0.55366874,-0.45829308
ALOT,2.2023273,2.8210895,2.401693,3.3164687,-2.334228,1.1895984,-2.037615,1.0677288,0.90775263,-1.1157413,0.8360145,0.09532429,1.9807281,-0.5350176,-1.7208066,-0.71754795,-0.13282548,-2.610083,-1.5802815,-0.92251354,-0.8545086,0.32506153,-3.0063105,2.0762265,0.08782498,-1.4113263,-1.9934455,1.0432193,0.509395,1.5726489,-1.8074977,0.9769508,0.33592027,-2.9231915,-1.1400644,-0.14926411,0.7495739,1.000136,-3.5369112,-0.8706307,-0.38554996,2.8157005,-0.99600625,1.8210912,4.7279596,-1.1225913,0.29969513,1.2387472,-0.2993236,1.1253767
ALQA,0.70779455,2.7024028,-0.27332196,4.7626123,-2.392456,1.1486951,1.0004119,0.90020585,1.7541357,-2.202862,0.08172907,1.9510392,0.9949715,-2.0484934,-0.8503342,1.4376009,-1.1135945,-2.6401904,-0.7042962,0.7547443,-1.2194493,1.3499215,-2.6170502,2.1950126,-0.089555606,-2.2454305,-2.1696055,-0.88249815,-0.7492472,1.8978053,-1.4032394,2.1425877,0.7733325,-2.32209,0.383559,-0.26007462,0.4588469,0.68212926,-1.2332463,-0.9046191,-0.781484,1.630997,0.10783747,2.157491,4.703034,-0.30634242,-0.058094982,2.0378218,-0.34936473,2.355641
ALRM,0.4753346,0.83712006,-0.8141152,0.67092425,-1.8527598,0.68654335,-0.017387858,1.1156802,0.67830867,-0.8689554,1.448659,-0.13907458,2.4228168,-0.40230444,-0.80603266,1.1050675,1.0359374,-1.8650302,0.684997,-0.172405,-1.0347013,-0.5200542,0.06919406,1.5243562,0.99909157,-0.22011061,3.602066,1.0415827,0.2818354,3.0817046,-0.6018667,-0.5985092,0.28397122,-1.1565083,-0.14580697,-0.5206263,-3.2360458,-2.9675322,-1.4890788,0.61347395,-1.0825648,0.7279888,-1.5332894,1.5450778,1.2779,0.11102126,2.0949652,-0.9831923,-2.786919,-0.75815994
ALSK,2.460679,2.1462238,1.5376123,0.0009832738,-3.1189456,-0.93828946,-0.34441575,1.8127881,-0.09383362,-4.118179,-0.027831912,-0.556074,0.2509107,-0.7213006,0.6299266,1.5746166,-2.353675,-2.2994368,-3.1492662,0.5030367,-3.0138967,-0.6768592,-2.9388242,0.74802333,-0.36399513,0.7830068,-3.1037066,-1.6161722,1.5792549,3.5248415,-0.6054041,2.4173458,0.32219678,-1.2300353,0.33600906,0.13153031,3.2187958,-1.5707314,0.93719363,1.2806926,-1.886042,0.2925421,0.21434206,0.05791522,2.2064214,-0.43726227,2.2305782,1.749145,-0.13814627,1.3569903
ALXN,0.40953627,-0.2534127,-0.9792804,2.3685884,-4.3301787,0.46686003,0.06849225,-1.0746036,1.0091954,-3.8175206,0.38672933,-2.216275,0.7551932,-1.0607078,-1.4902562,0.59206223,0.11883812,-2.0541534,1.3603197,-2.1167812,0.4439849,-1.2363701,-0.50912476,1.549206,2.1387253,-1.1150199,1.85743,-0.5371836,-0.72979385,1.4514871,-0.16936818,1.7134639,-3.4291387,-2.183394,0.68389684,-1.181387,2.398614,-1.3997908,-1.5372814,1.647138,-1.1579505,1.205266,1.0289133,2.8756585,2.9359217,-0.5737464,0.53875816,0.476802,-1.6060855,0.6419749
AMAG,0.28599876,1.1211294,-0.98381793,1.9566584,-0.84596694,1.4802259,-0.04244274,-1.9665531,1.0293794,-3.3746123,-0.78960645,1.4677569,-1.6229464,0.61457425,1.3448006,-0.48438233,-1.0644497,-2.5565295,0.35192287,-0.75832313,0.30162057,0.050467525,-3.5845196,0.12047523,0.7175525,-0.5941516,-2.0711079,-0.46905747,1.1662961,0.5021558,-1.7393085,1.2562565,-1.7994754,0.8412081,0.830775,2.353788,0.71055704,-0.021725671,-1.6298571,1.02113,-4.8379416,4.393991,-0.91909987,-1.3045645,2.8855817,0.5613072,-0.1854268,1.0872158,0.76821256,0.6937096
AMBA,1.2771703,1.3599766,3.9694817,2.229763,-2.7218235,0.8619807,1.205142,1.6649036,2.3806007,-0.9004852,0.55142903,-0.9684988,1.7739553,-0.06965791,-2.2012646,0.9893188,-0.3590896,-3.6331766,-0.29196656,-0.09767837,-1.5647448,-0.9080823,-2.6995366,2.8295598,-0.97911,-0.58801174,-2.161885,0.01371138,2.324341,0.82729036,0.13068578,0.2710621,-1.4498585,-1.8502601,-0.4636372,-0.3546699,0.6601255,-0.65577537,-2.347569,0.3974133,-3.007284,1.9874071,-0.92446107,1.30476,3.6027057,-1.2902919,0.8895767,3.811721,-2.084464,-0.27329952
AMBC,-0.4537706,-0.143047,-0.09471118,-0.7271704,0.23387915,-0.614116,0.36095223,-0.59014946,0.35600546,-0.078578964,0.58901656,0.21413897,-0.7841743,0.43790358,0.5646456,-0.4199462,0.3750282,0.58251584,0.5706108,1.050582,0.051757075,-0.5959039,0.34726903,-0.5018674,-0.14000697,-0.4652058,0.76270115,0.21455407,-0.40415847,0.58377874,0.02197718,-1.292585,0.7853083,0.458178,-0.11859633,0.7632883,-0.20270297,-0.9859187,0.2932435,0.88433564,-0.5375759,1.5959966,-0.14458089,0.7765302,1.0579207,-0.4902156,-1.0855204,-0.047933035,1.0379105,-0.5388205
AMCX,1.1236366,0.38650566,-0.9305732,1.9463929,-0.41285682,0.021279583,-0.36617136,2.053976,1.686738,-1.9332368,-0.1670228,-2.321744,0.095335476,0.5716391,-0.346431,-1.0156362,0.13734452,-1.1789861,0.3168212,1.1667467,0.91636527,-4.1454086,0.8978843,1.8782978,1.7184769,-2.1675754,2.0249684,1.5014048,-1.2181361,3.247003,-1.0078949,1.2473227,0.18557659,-0.57970476,0.5909508,-0.052177515,-2.8279786,-2.7614172,-0.5799425,2.8891368,-0.03020418,-0.40868682,-0.1824622,3.2289977,0.9895041,1.9244766,1.9772805,-2.56202,-0.98855007,0.40265587
AMD,1.258054,3.694507,2.646822,1.6046869,-4.0406647,0.31939134,0.135378,1.9099889,0.9532587,-3.4033065,-0.4078602,0.16047238,0.99336725,-0.34277725,-0.06630392,1.6697546,-0.8522374,-3.0171013,-0.81313926,-1.5868034,-2.8354456,0.21220078,-1.6242054,1.3761985,-1.7388973,0.18859966,-2.3899267,0.9553526,-1.1637442,2.2167125,-2.4835901,1.1780065,0.56362617,-3.0944204,0.8612298,0.29413417,1.2766035,0.6274328,-1.9834559,-1.5002294,-2.586609,1.7534286,-1.7043571,0.7031546,2.7859533,-1.7722328,0.22617076,1.6473124,-1.1612203,0.8528598
AMED,-0.41210908,0.42876482,-1.3475125,2.5193148,-0.3130252,-1.6623206,0.3378162,0.1792656,2.0649323,-0.45432025,0.81393164,-0.62560904,-0.9411742,1.7507701,-1.7083427,-1.0601535,-1.175966,-0.42772892,1.0908799,-1.6927464,-2.4800737,0.19357315,-1.5348619,1.6602248,-0.901407,0.33680215,2.1370628,-2.2252948,-2.1646457,2.4254756,2.7347476,-1.0059602,-0.8777855,-1.8612905,-0.99808824,1.206684,4.823065,-1.3089372,-2.1023152,2.7720788,-0.3020579,1.7101114,1.8575372,0.85066676,2.2198539,-0.73516643,0.678304,1.3762985,-0.683599,0.50442684
AMEH,1.6866589,0.47027856,0.27751547,2.3283098,-2.5708385,-0.33203152,0.11698022,0.8725814,-0.8993115,-2.135919,2.370714,0.17138804,0.7231731,-2.3302298,-0.17383422,-0.31677723,-1.573225,-2.1227942,-1.5909486,-1.4186502,0.8597836,-0.5616965,-0.32624695,1.449879,2.5289383,-0.66251975,1.1318463,-0.8355983,-1.5382487,0.61203414,1.3693033,0.06189899,-2.0670946,-0.5550616,-1.1096013,-0.90547323,0.22093156,-2.0927837,-1.5969404,2.3062499,-1.3155159,0.47423747,3.2452102,3.0289686,2.2370968,-0.48158744,2.5333807,-2.3322532,-2.5009062,0.6833081
AMGN,3.1102586,1.5474354,1.8093541,0.69402474,-2.522866,1.7797623,1.8360273,0.16060778,0.70607525,-2.03983,-1.7010677,0.4994402,-0.626422,0.4834566,-0.055607323,-1.361689,-1.2193708,-3.3107474,0.70528126,-0.7090871,-3.2421856,-0.19575036,-3.140347,2.2349029,-0.99302155,-2.0494661,-2.101934,-1.5754523,0.44178122,1.7361102,-0.1011217,1.686649,-2.8692882,-2.7374403,-1.5979829,-1.178103,0.471399,0.399387,-0.043449286,-1.0837393,-2.3282871,1.587564,0.98487985,-0.33473188,3.363691,-1.5869012,1.7792422,2.5631392,-2.0196252,-0.37613901
AMKR,1.3335474,2.1009166,4.7958164,1.5953041,-0.949453,-0.83753467,-0.27514955,1.5539773,0.9485529,-1.6318402,1.1722362,-0.20798983,1.4605267,0.11136397,-2.0832365,-0.16371611,-3.1647804,-4.040761,-2.1966488,-0.3422885,0.4829382,-0.50971234,-2.4688706,2.0937095,-2.184041,-2.1740596,-3.0592582,-1.0293021,-0.16645616,1.7636644,-1.6186804,0.62923557,-2.111786,-2.657276,-0.86841434,0.23813412,-0.5506768,-0.316181,-1.5914843,0.27411807,-3.3254259,1.6891854,0.30587676,0.73120576,2.2909956,0.2788299,2.8606367,1.5530283,-1.0458592,-0.04157622
AMNB,-0.21916096,0.5109868,3.09516,-0.7479257,-0.9639901,-1.2388613,-0.43805227,-0.35075593,-1.0577872,0.5985821,1.2313987,1.0313002,1.6668826,-0.70219904,-0.95991206,-0.969234,-1.3313785,-1.5739539,-0.27194098,-1.1804014,-0.20467325,0.97083455,-1.690125,-0.5439002,-3.2123961,-0.57597905,0.6483442,0.51366365,-1.4110603,3.554097,2.328526,-2.223593,1.3096111,-0.41558638,0.44312418,0.8930671,1.5356544,-0.9908615,-0.6092264,1.2276615,-0.85365444,2.3437085,1.8652861,3.515082,2.531608,-3.3983142,0.77791876,1.5506413,0.41698298,-0.5539794
AMOT,1.1715297,0.43940005,2.091527,0.7952819,-3.0367258,0.618274,-1.17785,0.9965819,1.3768979,-1.9340737,0.34811765,2.735554,-1.6154414,-0.51951426,-0.23012182,0.9507755,-2.892509,-2.4387598,-0.9424385,-0.76410675,0.018166998,0.33151504,-3.265422,0.23080352,1.0584126,-0.77733225,-1.9740554,1.2179909,1.8943999,0.16421159,-1.3196629,0.62249196,0.82057,0.4714989,-0.31066135,1.2102481,0.41562822,-0.056975733,-2.0028796,2.4214,-2.795123,5.4346538,-0.8294624,-1.3649021,2.7861445,1.5898385,1.560133,2.2073667,0.57796735,-1.1887062
AMPH,1.351686,2.3857067,-0.21943326,2.6541486,-3.4056191,0.69026226,0.43913335,-0.07333716,3.291096,-2.9980738,-0.29054818,0.36281842,2.350216,0.97559834,-2.4942794,2.3218386,0.5522678,-3.0992644,0.108046405,0.34384823,-0.91999537,-0.36457476,-2.0646608,2.3270304,1.2221942,-2.4952912,-0.23807539,-1.9615322,2.0701737,2.7149463,-0.6637761,1.0536623,-1.1772196,-1.4760045,-0.06403349,0.7976388,1.9404291,-1.0757847,-0.89252305,-1.4327089,-2.17259,0.38882822,1.3869696,0.10125073,2.995107,-0.79726577,-1.2671849,3.2052546,-2.3547528,1.634783
AMRB,1.5927948,1.187893,1.6532477,2.8660545,-2.1463819,1.0437052,0.08967019,1.9431814,-0.14859843,-1.5650247,1.0236367,0.8177115,0.80089766,0.96554095,0.34810793,0.025207605,-0.98030585,-2.0698903,-1.3164371,0.21428142,0.7551128,-1.5061533,-1.5861514,2.0291042,-1.0625038,-1.3141695,-0.23231739,-1.283957,0.5121536,2.1545806,-1.2177806,-0.7800441,3.0123672,-1.64246,-2.028761,0.2197746,1.4435524,0.407498,-1.536391,-0.19582552,-1.6810777,-0.092370935,-0.36641595,0.8528467,4.730201,-0.019957965,1.4401523,1.8212501,-0.51298904,-0.6308531
AMRK,1.6016028,0.27468058,1.8986386,-0.5367632,-1.6953683,1.0333154,-0.9405368,-0.5580611,0.4464432,-1.8547747,0.4462392,2.8984785,-0.68342865,-2.4092474,-0.11228969,0.9929662,0.92378443,-1.323633,1.1009309,-0.2818364,0.12743166,0.43791628,-3.7240393,-0.6926944,-0.730784,-1.2142873,-0.9046472,1.1074677,3.524281,1.4461284,-0.7114371,-0.98461,-0.20327917,1.7197728,0.5490666,0.8744842,0.030076984,-0.13343878,0.5101179,0.8974489,-4.339072,4.842539,1.0905377,-0.41540486,3.0799644,-1.5162253,-1.4339283,2.6737576,0.99097586,0.10261857
AMRN,1.435784,1.931022,1.1417283,3.4990203,-1.7311933,1.4460527,1.8727529,0.77787375,0.29469782,-2.4185097,-0.08305511,1.6225235,1.5237633,-0.8121943,-0.5673592,0.7419336,-1.9085969,-2.0708516,1.4736934,-1.4020077,-2.2677813,0.20809184,-2.724076,3.7816002,-3.1231074,-2.0461526,-0.6197661,-1.3826559,2.927443,3.5862257,0.0015403684,1.9110864,-1.3027298,-0.5138746,0.62509954,-1.1859658,0.72428536,0.7943388,-0.5135104,0.19840938,-2.6824503,0.48799857,-1.2716975,0.16892579,3.9856725,1.0102286,1.6889961,2.1248302,-1.3579253,0.2721811
AMRS,0.091847554,0.6578359,-1.2851937,3.695656,-3.2251482,-1.0364453,0.764555,1.2165045,-0.5841774,-3.648431,0.4261744,-0.091276504,0.87392014,0.44561434,-1.8494213,-0.3854083,-1.5160521,-4.500056,0.5359257,-1.0851176,1.0112432,-0.10979278,-3.8132591,2.7389925,-0.78288,-1.0448004,-1.6826122,-1.2707323,1.1290599,2.267495,-1.5166568,0.37981308,1.3893605,-0.7792097,0.43181297,-0.24917634,1.0010152,-0.65357864,-0.2750074,-1.4771813,-3.0209217,1.0794314,-0.09994625,-0.010392482,1.6869023,-1.0584594,0.94596875,1.7719465,-0.54377824,3.3630898
AMSC,1.6177717,2.4835546,1.2403822,-1.0603762,-3.6804528,2.24661,0.07907198,-0.55663073,0.49158087,-1.4812926,0.98702693,0.2959417,1.4401217,1.3185186,-0.55702436,2.4766967,-1.8194566,-3.030714,-0.7347339,-0.77837,-2.0763516,1.8146831,-1.6369615,1.4987733,-0.05256848,-0.0050948802,-3.80055,-0.6305003,1.3057027,0.056479193,0.14590178,-0.312677,1.3725454,-2.8811758,-0.9845959,0.2235238,0.6649489,-0.842207,-1.9758067,-0.4604203,-2.2131789,2.0719762,0.5540695,3.171146,4.404102,-2.1205928,2.239993,1.5798845,-1.8762065,0.40069976
AMSF,1.0392262,-0.51122695,1.2170913,-1.4890863,-1.8775278,-0.018601075,-0.3243827,1.3873651,-1.2290558,-0.91127115,0.8218621,1.2328776,1.2574055,-2.9901009,-0.11427407,0.010733501,1.8664241,-0.9013506,0.25772956,1.2056746,-0.3554767,-1.8524461,0.87488866,0.55829734,-2.1104298,-1.5050516,2.5033472,1.6642995,-0.65906084,3.1510751,-2.1640506,-1.4031571,1.9757229,-0.39528075,1.0784333,-1.7689003,-2.3447478,-2.4272914,0.699709,2.5793848,-0.31212097,0.9582641,0.62734795,4.454666,1.5112609,-1.0732838,0.49064153,-1.4214994,0.59009373,-0.6322208
AMSWA,0.7020511,2.3431916,1.7176217,1.9320321,-2.8337696,2.2657995,-1.8274374,0.8961763,-0.16855377,-2.0066326,1.0046585,-1.3971711,2.1280994,-0.0077475575,-1.6393666,0.81531847,-1.4658891,-2.9093122,-2.2561672,0.7709221,-0.6919014,-0.46947625,-2.7155974,1.8423611,1.9266165,-1.465857,-1.1781784,0.4692552,1.3331198,1.9551733,-2.089856,1.1391436,-0.011810019,-2.3714395,0.060496617,0.13728262,2.2836347,0.57458496,-1.5143237,1.3014712,-0.3225213,1.7667229,0.26944286,1.6178795,5.2336802,-0.15529954,0.38611683,3.5580573,-0.54335105,0.075655624
AMTD,1.2824793,1.1921645,1.6580589,0.48597455,-5.0229764,-0.96030545,0.49702975,0.8418396,0.9671873,-3.052025,2.5013835,-0.9065574,1.4854004,-1.3293726,-1.184744,2.015339,-0.10443302,-2.134279,-1.4127531,-2.2396982,-0.5982275,0.72939974,-0.58163613,1.9645379,3.138757,-0.75045884,0.9848583,0.5377764,-1.497418,1.3312455,1.1586215,0.92873025,-1.1934597,-3.3600407,1.3271533,-1.2097243,-0.13509928,-0.8130865,-2.240978,1.8172231,-1.2527602,2.2453353,2.5946279,2.779356,2.2474809,-0.20128134,1.3269696,-0.8653082,-1.8695362,0.5486487
AMWD,1.531332,-1.0287365,-0.2507796,1.5790544,-2.2362947,1.1416668,-0.1167865,1.8744015,1.0491621,-2.5297759,-0.36002645,2.2578394,1.6145159,-0.88050145,0.03707023,-1.2337632,-2.5177057,-2.609167,-0.38989422,-0.94764227,-2.3672786,-1.5477633,-2.465031,3.684276,-0.21802092,-0.5886883,-2.2519848,-1.2060709,3.2384279,3.5906286,1.1171889,1.320361,-1.264749,0.45320916,-0.30173203,0.62431675,0.446317,0.46894434,-0.54030335,0.34363207,-2.5711644,-0.18914168,-1.2310965,1.6018953,3.9844432,-1.3625265,2.6270685,3.867111,-1.4863682,0.3737456
AMZN,1.5870783,-0.21229844,-1.6402067,1.2602913,-5.8770776,0.8228707,0.8317679,1.5875691,1.2374569,-2.2721806,2.061468,0.94172573,1.1703492,0.015778447,-0.8466774,-0.3829119,0.8687771,-2.3725195,0.26068342,-3.2387962,-2.0105212,-0.71245,0.7013864,3.5366266,1.3530998,0.0692992,1.8060092,1.2174679,1.5808818,1.6052513,-1.2538577,-0.0027403615,0.06349447,-2.3584232,0.72041804,-1.8562785,4.085709,0.42083383,0.10005426,2.172958,-1.7484589,0.86570716,0.9999996,1.761455,4.287599,0.12533312,2.1591737,0.37435082,-0.29327396,0.5702448
ANAB,0.698025,0.36151665,-0.37725404,0.22652298,-0.34323385,0.28515443,-0.25789726,1.0162183,-0.08017064,0.19210993,0.40280014,0.058670253,0.54921263,-0.2258922,-0.16257603,-0.5218504,0.09524918,-0.5054574,-0.214535,0.11071038,-0.823478,0.088489026,0.013139946,0.35927522,0.038777173,-0.056796446,0.62458885,0.2347602,0.32225895,0.21799538,-0.50197005,0.29788738,-0.17727956,-0.029305113,0.025433958,-0.31887108,-0.6977668,-1.279908,-0.60968053,0.90128535,-0.3249592,0.86734825,0.30694154,0.4190746,0.15775855,-0.21610469,0.5112548,-0.29952392,-0.5051695,0.16757189
ANAT,0.8269599,-0.70461684,1.8753328,-1.5957209,-3.0407112,0.12644923,-0.3033414,-0.26494724,-1.6800745,-2.3267741,1.3501793,0.17776829,0.945498,-2.7408068,0.5184568,-0.10116396,1.0026788,-1.6250722,-0.79062504,-0.19886917,1.5182548,-0.9042987,0.26987988,0.26491895,-0.9550967,-1.3034066,0.12164666,1.4228778,0.030000415,3.236968,-0.8555665,-1.3578858,0.36927426,-0.48582113,0.94428384,-1.2369797,1.8873193,-0.28166512,1.4383618,2.2834332,-2.1462605,1.2106749,3.3021886,4.7395773,1.8910394,-2.915428,0.5766916,0.36338598,1.1887192,0.30723578
ANDE,0.51613545,2.797572,2.7921598,0.013728171,-2.8512962,0.17764147,-0.030238895,1.4235095,-1.217879,-2.1521318,-1.2236162,0.5221408,1.8565387,-2.5856283,0.59009403,1.3485258,-1.0463127,-3.5351489,-1.3583477,-0.32496342,-0.48533264,0.19722208,-1.1951461,-0.68956286,-2.2416167,-2.3876936,-2.1685748,1.6870997,2.185308,4.581767,0.04063227,-0.7593262,0.8739177,-0.9916461,2.1957288,0.55775756,1.1687856,0.33904645,3.0520527,-0.40229824,-2.4921036,0.96934634,0.79148966,4.1869626,2.0875564,-1.6092614,-0.1490003,2.19885,0.17959957,1.8966041
ANGO,2.0676358,1.9463695,-0.16210921,1.9020972,-2.033663,1.0872841,1.4294841,-0.3021904,1.9791725,-3.3833864,0.012694216,-1.0588034,1.3609806,-0.88160187,-0.76632077,0.73187363,-1.6195965,-2.1273654,0.6536134,-1.3773314,-0.57636833,0.982192,-4.179494,2.140101,0.6050905,-0.55979073,0.3722702,-0.4572503,2.478177,2.0395238,-0.074368805,0.028923076,-1.7898937,-2.1944098,0.14852048,-0.21312918,0.6340276,-0.35409158,1.154561,-0.80947363,-1.5853182,-0.7351791,0.2574623,-0.02627201,4.0259132,-1.3582797,1.383433,4.403841,-2.5636556,2.9749966
ANIK,2.9485428,2.723975,3.0341153,3.0880618,-3.4870262,0.28840882,1.6740116,0.33923516,2.2515776,-0.62116224,-0.9262699,1.4919231,1.7017795,-0.14573653,-1.3554736,-0.0408856,-1.5544488,-2.106258,-1.7182385,-0.0254312,-1.8073393,-1.3417594,-4.131638,3.2154768,-0.7093843,-2.4530983,-1.4373689,-0.80637395,-0.54906124,0.3056824,0.40020126,-0.34445703,-0.93314135,-1.9675823,0.33142027,0.47406694,-0.21113867,-0.9814598,-1.9286603,-0.05800991,-2.807962,0.29077452,0.48004276,1.1368186,2.13867,-2.0160701,0.2805058,2.9517972,-2.5755203,1.3871037
ANIP,0.6790519,0.652254,-0.8185159,2.0271192,-1.8547419,1.4991663,-0.45454204,-0.46721175,0.22343278,0.29747912,0.36060327,-1.376275,1.6752299,-1.1212549,-0.72727674,0.26170173,1.0084571,-1.9647846,-0.13375837,1.6635653,-1.1375408,-1.9449521,-1.3075141,1.7309169,2.2913566,-1.7594527,2.617307,0.55322707,-0.8023775,2.0393517,-1.6838671,0.24150553,0.25584084,-2.8035288,-0.09830386,-0.48095065,-2.017728,-2.3091223,-3.6400526,3.6590781,0.88850045,1.861871,-0.90336984,2.6118305,2.1190062,-0.30219787,0.8184969,-1.7005507,-1.5260882,-1.166066
ANSS,1.3802758,1.7505347,2.1636617,0.25168788,-1.2761989,-0.055881944,1.2312723,0.42840132,0.8459933,-3.4079869,0.8468064,1.9453284,3.170214,1.4172379,0.15551727,-0.40320766,-4.0843463,-3.6568997,-1.7172836,-1.7751344,-1.3144493,0.15899648,-1.2175024,2.3781152,-2.6253705,-0.22394922,-3.5207841,-0.6481635,2.149598,3.768257,-1.0653536,0.82817125,-0.32927006,-0.9272853,1.430933,-0.72432786,0.7401967,-0.46049368,-0.38923675,0.32121247,-1.9512813,0.65530235,-0.5876855,1.0792018,3.3426828,-1.02911,3.8718402,1.9757034,0.8441163,-1.422347
AOBC,2.6718466,2.1288903,-0.6380268,1.1186501,-2.676006,0.7706929,1.2002057,0.64653087,1.1587863,-0.7101833,0.39014897,0.9959435,2.299653,1.1236211,0.13779213,0.0922684,-0.7049777,-3.2202592,-0.1392153,-0.27440637,-2.2637792,-0.42776966,-2.3139741,3.4836545,0.710813,-2.2413094,-1.7694745,-1.2621025,3.2716534,0.8859174,2.550237,-2.1836638,0.48513216,-2.555437,-1.5442617,0.51527554,0.12269317,-0.09439182,-1.3125898,-1.5025785,-3.5459301,-0.06325953,1.7627239,0.3252864,3.852923,-2.4013925,0.59945095,1.5786664,-2.57481,-0.363558
AOSL,0.65412265,2.9038448,1.2241514,1.1032014,-3.11019,1.4405203,0.7848549,0.3604051,0.6617702,-1.1431271,0.38544223,-0.7484573,1.966073,1.4730792,0.4045117,1.2541732,-0.2592905,-3.292599,-1.6714811,-1.4401441,-0.825238,0.9227314,-2.4894626,2.4618664,-0.30946323,1.0953856,-2.280788,-0.92351234,1.7925483,2.7289627,-2.8598034,0.37488896,0.70653003,-1.4263049,1.2030512,0.1598711,1.3577558,1.3934929,-1.2949474,1.2554919,-2.1896634,2.6463568,-0.13162777,1.7841272,3.8704002,-2.5225995,2.731839,3.0834463,-1.5430659,-0.3427591
APDN,0.8843677,0.68886673,-0.68342525,-2.104169,-2.053055,-0.37543222,2.0350628,0.3528566,1.665178,-1.3732203,0.6473986,-1.0447239,1.622427,1.0798544,0.8671417,-0.49559537,-0.100922,-2.1841683,0.11407906,-0.4125009,-1.8708286,-2.0649698,0.73183125,1.6317786,1.2015024,-1.0389638,1.2545764,-0.56743056,0.89064044,2.1219468,0.2583982,-1.4667695,0.43157834,-1.5468369,-0.0590435,-0.033159178,-3.4638705,-3.7659643,-1.3163882,1.8722416,-1.9276581,-0.16379502,0.52690494,2.6849926,0.6305666,-0.9955527,4.5057325,-1.6831039,-1.8511579,-1.9111562
APEI,0.22349145,1.2550437,-1.2361739,0.8678779,-4.0305033,-0.48664886,0.627921,-1.0208168,0.8375246,-2.7992682,1.6415087,-1.0176314,2.3730938,-0.82412523,0.22981766,0.04072366,0.14296383,-3.001505,-0.30165276,-0.16640234,-0.66156304,-0.51162595,-1.7208894,2.241051,3.9539661,-0.966799,1.3860015,-1.0389332,-0.02833094,1.5241814,0.5306213,0.9853769,-3.3695114,-1.846278,0.29248232,-1.1321523,3.0323935,-1.4194294,-1.642408,2.4094675,-0.46023354,1.7643516,1.888523,3.2094839,2.59186,-0.85198605,0.8140215,0.0598555,-0.60900456,0.6736285
APEN,1.5952728,-0.7604632,0.92992944,-0.25240937,-2.1333776,0.09759345,0.6399083,0.2852858,1.1008353,-2.091772,1.548621,2.9402542,-0.8069977,1.0943458,0.8325979,-0.17536035,0.009658241,-1.6467364,0.48454604,-0.09184804,-1.6790116,-0.9085952,-0.76992583,0.47548202,2.6216862,-0.53393835,1.2656316,0.7326578,-0.6412622,-0.49630117,-1.569498,0.06066613,0.6628134,-0.11817642,-0.31346926,1.1821163,-2.254563,-2.025678,-0.86439353,3.7301126,-3.2237706,3.7065973,0.2000007,-0.8641644,2.6348987,2.2085068,1.0490217,-2.1774893,0.5203492,-0.7577192
APOG,2.6323419,1.7272915,-0.17961669,3.6424048,-0.89042217,0.6504288,-1.5091724,2.9121094,1.0035003,-2.7283366,2.0938692,0.24891025,-0.641379,0.49306333,-0.4484057,-1.6971519,-0.73316514,-2.9667482,-2.3051503,-1.892636,1.5475128,-0.8370722,-1.8279995,2.3119996,-3.30373,-1.6960266,-4.035763,0.80710167,1.0570717,2.357906,-0.48307392,2.6350229,1.3430159,-1.1829933,1.549718,0.5415739,0.60941917,-0.15567534,-1.1363997,-0.49253106,-2.0040631,1.2552441,-0.3689799,1.3485035,2.0119624,-0.87070906,2.1494372,0.08805884,-0.72123754,1.5475599
APPF,1.497586,1.097929,-0.23977618,2.0674598,-1.0841135,-0.1442637,1.2296427,1.5170239,0.12202336,-1.4441783,0.6908281,0.5176266,1.523949,-1.7746949,-1.1868587,0.86968875,0.6899763,-1.5461159,-0.6543325,0.56182325,-2.2768784,-1.4304521,-0.9859827,0.9359843,-1.0797559,-0.62646097,2.656753,0.6631717,-1.7567443,1.4624681,-0.95831996,1.7838954,-1.0518829,-1.4985036,0.5434382,-0.65141815,-2.8794997,-2.683318,-1.7701436,1.8966333,-0.86027503,1.7674165,-0.44286406,1.2998319,1.0570316,1.3400536,0.64132977,-1.3729603,-2.8603325,0.6109468
APPS,1.3653226,2.639292,1.272811,0.73659825,-2.3782468,-0.4994519,0.11540344,1.207211,0.7151596,-1.5192978,1.8241489,1.8823799,3.8944995,-0.70099956,-0.7908885,2.1735976,-1.84564,-3.35687,-1.3738881,-1.0828018,-2.6978655,-1.445495,-4.047193,1.3593508,-0.73618466,0.8919614,-2.7141948,-2.0925357,0.76368964,2.9664712,-1.1355941,0.35384333,-1.202329,-2.5043309,0.77763623,0.49385682,-0.18388191,0.40331262,-2.6943288,-0.047939144,-2.4216034,2.0903957,-0.82315767,0.532574,2.0437515,-0.90429324,0.71146375,2.07957,-1.049467,0.5250491
APVO,0.97489303,1.0200831,-0.0379583,1.2627195,-0.845243,-0.13052715,0.61438453,1.5864817,-0.22332305,-0.73304904,0.6211129,-0.60973656,1.1445665,-2.184193,-0.4006912,-0.26246187,0.65084577,-1.2497408,-0.3357775,-0.23844394,-2.578965,-0.37462193,-0.8929322,1.6619626,-0.2195542,0.06469364,2.4103155,1.5461706,-0.42598787,1.5162275,-0.87803304,0.93787605,-0.75033027,-0.77931577,1.1618128,-0.8581514,-2.1534085,-2.2776709,-1.5304902,1.3410546,-0.19882683,1.3752805,-0.12990424,0.7865967,0.6573343,0.8161864,1.5369656,-1.8054032,-1.2762438,1.1050816
AQB,0.37987944,0.20462488,-0.5058338,0.16503827,-0.051991265,0.17101432,0.073530965,0.8829664,0.33064213,0.4342327,0.55049056,0.4825205,0.17902,0.2780587,-0.59833974,-0.8042255,-0.14219062,-0.5502677,0.1726398,-0.79155076,-1.2714095,0.18322797,-0.2770511,0.7050586,0.24651292,-0.033843618,1.1100122,-0.46914247,-0.6946019,0.751878,0.3930987,-0.44529346,0.08634651,0.045742586,-0.5489224,-0.038123455,-0.49278566,-1.5429643,-0.7672054,1.2687663,-0.11752165,1.1281039,0.93884856,0.23756416,0.24676889,0.007817252,0.3468249,-0.10125725,-1.1140912,0.6107618
AQMS,-0.5750872,1.9087099,-0.28115937,2.96889,0.46994895,-0.6455189,-0.0957766,1.138261,0.48743248,1.0143983,0.57653993,0.09158165,0.87158376,-0.3561314,-1.2124125,-0.41449416,-0.08754124,-1.3976334,0.052434478,-0.3824544,-3.298429,0.31159535,-0.6108473,0.7898725,-0.94849986,-0.14911301,3.1195123,-0.5752172,-2.3244593,2.4342573,0.07784344,-0.98912656,0.7759406,-1.407113,0.03180408,1.9194802,-0.63919145,-3.2415352,-2.0534878,1.785276,1.5121276,1.439722,-0.3955573,0.95911515,0.7041737,0.17967184,0.33905435,-1.0996515,-0.78985816,0.40997794
AQXP,-0.9357065,0.9953877,0.0019921148,-0.7890284,1.1475986,-0.2031053,-0.71768034,1.0977931,-0.084175624,0.79922587,0.53094447,1.2844261,-0.6887449,-0.6103779,-0.42644703,-0.59703285,1.0176651,1.0020739,1.0158067,0.8504629,-0.6225686,-1.708066,0.5183093,-1.3509275,-3.1907983,-1.5596328,2.2515373,0.6841986,-2.1233196,4.413876,-1.8362898,-3.7493908,1.9897003,-0.6147159,-0.16723631,0.2493147,-0.034822017,-2.545653,0.39838827,1.5678967,1.5046594,0.8249482,0.8164148,2.526375,0.4681784,-1.990931,0.33458737,-0.58629847,0.6169039,0.35603637
ARCI,1.8905405,1.731413,0.29467604,0.62290835,-1.6152928,0.24611661,-0.4300828,0.26280066,1.4368705,-2.1763654,0.35170558,2.3193057,-1.2623898,0.25835645,-0.52303016,-0.077139005,-1.7123479,-1.9876924,-1.9433912,-1.2139343,-2.0667963,1.4485083,-3.7875144,0.5285961,1.8020772,0.32433602,-2.6763148,1.8061535,2.1694045,0.12134863,0.80118144,0.61487675,-0.9348966,-0.034349225,1.7963792,0.63249016,-0.42701182,-0.5248584,-0.66805065,0.9749675,-4.7833858,3.946536,-0.9853984,-0.4819017,3.325733,0.0612354,-0.24907418,1.979528,0.16575561,1.3444165
ARCW,1.2620842,3.6903226,0.69198245,3.8092096,-1.4132063,1.3367448,-0.5410627,2.3467977,-1.7333025,-1.7704759,0.65961665,-0.89091647,-0.696928,-1.1220272,1.0603714,-0.7254088,-1.3084034,-1.3643905,-1.1625888,-0.9536626,-3.5366247,-2.5516994,-2.0720882,1.966737,-0.96114963,-0.7827413,-2.982556,0.85258144,1.2080693,1.8404353,-0.20842111,0.67571306,-1.7433718,-2.034991,-0.4494246,-1.0877678,1.4312255,0.41005087,-2.167352,-1.1246766,-1.2304003,1.1598979,-0.8847722,1.707065,2.853305,-0.515187,0.84516436,1.1944622,0.4353814,-0.7755139
ARDX,1.4395988,1.5771958,-0.46559185,1.1585923,-1.8603194,0.31800836,1.0833552,-0.4651165,0.761225,1.1258391,0.9345969,-0.62841564,1.2130558,0.057637688,-0.5871751,-0.13548665,1.0213368,-1.1920277,-0.6032598,-0.50269586,-1.8535734,-1.1173327,0.124499805,1.5703044,-0.17375793,-0.7307632,2.1452317,1.4010895,-1.2891289,1.6496242,-1.5324317,-0.7023505,0.79047,-3.1086254,1.1584822,-0.48527065,-2.6211166,-2.8115048,-1.957859,2.451224,-0.83872753,0.4971784,-2.1869001,2.3421984,2.3852925,-1.3889518,2.2924144,-2.6951911,-1.1343417,-1.0425135
AREX,-0.2885012,0.10429587,-0.49682784,3.09487,-0.2898745,-1.8262271,-1.8690194,2.5596488,0.44430944,-0.79662335,2.214267,1.3682159,0.22571492,0.72815114,-1.5675862,-0.84486234,-1.2381946,-1.585068,0.06779012,-2.918629,-2.3401394,1.1321433,-1.4600706,2.9512224,-1.5200036,1.2042907,1.5085348,-1.1108096,-1.4981868,2.9879525,2.03866,-0.2647191,0.10372664,-1.1797919,-0.34693652,2.0906062,3.1240952,-1.285964,-1.1696732,2.621527,0.25255972,2.123841,1.2881051,1.1061964,1.720116,0.6105971,-0.08070613,0.4573686,-0.73496044,2.0275238
ARKR,0.7993692,-0.28985375,-2.5679677,2.6135323,-3.7722642,0.2891116,-0.6238498,0.078784294,-0.3743322,-1.8948137,0.2569462,-0.76742876,1.4433777,-1.318441,-1.2791723,-2.2166018,-0.413627,-2.0668945,-1.8683738,-2.3291605,-1.0911319,-0.62937456,-0.5792211,2.059491,4.078174,-1.0279359,0.91592,0.009145371,1.0475618,2.2463021,1.344562,0.51260644,-2.2295542,-1.1585534,0.8761827,-1.3450993,1.0203931,-0.80317664,-0.53519624,1.3060732,-1.4736446,1.7414296,1.9545413,3.4934638,3.16509,-0.78665406,2.4240155,0.23352909,-0.86120814,-0.29568142
ARNA,1.4194103,0.65088737,-1.5632802,-1.2481273,-2.650828,0.48703414,1.5111153,0.7261784,2.0845754,-1.014071,2.0817041,0.15684615,1.6446263,-0.8057325,-0.058230102,0.008284864,0.40383524,-1.7068884,0.18303783,-0.45171928,-1.3802955,-1.7073423,0.5890576,1.9549918,-0.45094928,-0.20283087,3.180131,0.26294017,-0.23549272,2.5847025,-0.67295927,-0.5655149,1.2030635,-2.1782959,1.3011025,-1.0833181,-1.9170895,-3.9533958,-0.95128644,2.8463068,-1.2055384,-0.7303417,-1.3090751,1.9631884,1.250586,0.08058518,4.149961,-1.1684732,-0.5552059,-2.1181116
AROW,-0.5392951,-0.20474713,0.81015086,0.2933692,0.53862125,-0.3477029,-0.54145455,0.99539787,-0.6489621,0.3916863,0.43827817,0.9984462,0.48456034,-1.3153261,-0.088654935,-1.4698874,1.9077997,0.30850762,1.3756502,0.8844332,-1.4766326,-0.39111397,0.43213162,-0.029461535,-2.5560713,-0.85493153,4.08583,1.4596446,-1.7069333,3.8640125,-0.7402303,-2.26208,3.2156925,0.3201243,-0.62061614,0.48178846,0.16951662,-1.939512,-0.02564055,2.1865642,0.92048013,1.1670516,0.8991427,3.4974375,1.6033676,-0.65159094,-0.29612982,-0.6476905,1.354302,0.49517584
ARQL,-0.36347362,0.5929171,-1.5186576,1.4014227,1.3244108,-0.2176762,0.8455498,0.46297807,1.8669044,1.0946797,0.3910668,0.4256873,-0.52353746,2.2421794,-0.58265597,-2.099886,0.08717688,-1.0845454,0.25434443,-0.57308775,-4.1774635,-0.2784966,0.26253358,0.9238979,-1.9742233,-0.50929356,3.0847838,-0.55789554,-0.80871814,3.0738862,0.6012584,-1.0878948,1.4473134,-1.0937344,-0.795175,1.532291,0.12958696,-3.5433915,-2.6416342,1.1827481,0.7828958,1.3827751,-1.2145829,1.9737544,1.7876474,-0.965141,1.9559469,0.41605142,-0.35809076,-1.9462179
ARRS,0.5502194,3.9726696,-0.371608,1.9604434,-2.8150659,2.463807,-0.09824062,-0.30724397,1.7061707,-4.2556314,0.36815584,-1.4677926,2.3753922,0.811372,-0.6956058,1.116345,-0.38260725,-4.590053,0.30790356,-1.7646224,-0.32137713,-0.1204327,-0.9866813,2.944242,-1.9554408,-2.6341097,-1.9341154,-0.5529923,2.270023,2.080922,-2.893482,1.8979002,0.73122925,-2.528755,0.92349327,2.3979204,2.7871182,2.2110853,-1.5227437,2.5707297,-2.4901817,0.52713555,-0.07396653,1.4779427,4.6017942,-1.2631809,0.62212706,3.2473292,-0.69156635,-0.9085831
ARRY,-0.17764094,0.5379824,-0.5708774,-0.81902593,-2.2226493,0.30788463,-0.47719395,0.22731979,2.177206,-2.0706055,0.21028401,-2.3456113,1.9377439,0.6159876,-1.5423006,0.19343162,1.2242023,-2.2820256,1.6748605,0.8060542,-0.078782156,-2.7904963,-0.355235,2.0803778,2.029458,-2.0487094,3.2991824,-0.22023383,-0.4403644,2.337221,-1.6735973,0.46017763,-0.5999384,-2.4127905,-0.18734846,-0.13380192,-2.6670046,-2.671043,-1.4154377,3.121828,-0.37259796,0.6727797,-1.8144046,2.8122158,1.9247919,0.90915185,1.0714154,0.1005923,-1.1003177,-1.0099833
ARTNA,2.386167,0.24228851,0.1464514,2.1760473,-3.405575,0.8781831,-1.1177822,-0.056428395,-0.81653214,-1.2130806,1.9895844,-0.50171405,0.6783672,0.48294735,0.18345685,0.22803314,-0.5972656,-1.5240792,-2.2730262,-2.7623215,-0.014484829,-1.7662164,-0.62930703,1.1852567,2.1077278,1.0986964,2.157393,0.3351907,-0.94086576,4.302297,-2.2800622,1.040161,-1.9409151,-1.440518,1.7411534,-1.4598324,2.8045774,-0.8682431,-1.2832999,0.48445642,-1.3345952,0.93287504,1.2585497,3.2706769,2.5774415,0.6731808,2.9142656,-0.16422041,-0.3805984,-0.11780063
ARTW,1.460171,2.1438415,0.95330596,4.575007,-1.7039995,0.09840743,0.2671175,0.84372234,-1.8028316,-3.7957664,0.45213246,-0.061876517,2.0400279,-0.92674905,1.4956417,1.440917,-1.425997,-4.137834,-1.2216856,0.51441324,-1.5770284,-0.40135777,-2.5814676,0.07038718,-2.538183,-2.213605,-2.8745997,-0.5728568,-0.58191276,2.0764499,-0.8647774,2.6284158,-0.6073942,-1.6492386,-0.29085544,1.912754,1.3654468,0.19235028,-2.6150427,-1.0617672,-1.8244603,1.6025801,-0.06609346,1.0200031,2.5098329,0.013263262,1.114804,-0.120880805,-1.4195346,2.3108559
ARTX,1.1810095,2.286331,0.5477114,0.47586146,-1.318841,1.1575153,0.25182858,1.491198,-0.1676076,-2.423515,0.954478,-2.8856938,2.0949428,-0.48630047,-1.4562703,-0.2796046,-2.0376177,-4.2054806,-1.609348,-1.0778184,-1.9586587,-0.074173674,-2.7720914,0.55842644,-0.90953535,-1.676883,-1.9184241,0.064107776,2.2653718,-0.07158173,-1.0976886,0.81916726,0.17580363,-3.6497505,1.5917199,0.9937322,1.5912774,2.01029,-1.9813728,0.91678244,-2.5973365,2.1487763,1.4286425,0.14156768,3.146707,-0.24285468,0.79858184,1.7892736,-1.2266427,0.16624139
ARWR,1.0718818,0.40162665,0.057392072,2.026728,-2.1122148,0.39426953,0.71636,1.3691914,1.8470097,-0.55177313,0.38904756,-1.2236879,0.7778638,-1.4823651,-1.1729791,-0.22240245,2.3328578,-1.9787558,2.0208623,0.8099575,-0.7334313,-2.0080132,0.21312687,1.7632111,1.9038897,-1.7155446,3.5294578,-0.55210423,-1.1787397,1.2608491,-1.3226494,0.68368185,-0.21888123,-1.7198166,-1.540671,-0.7977097,-2.1266003,-2.8443506,-1.8927372,3.4412947,0.75780725,1.2313683,-0.038046543,2.252079,1.1811464,0.8686326,0.7838946,-2.9444065,-1.882403,0.44434172
ASCMA,1.2319065,0.25612885,1.4388132,0.8716786,-2.8346312,-0.04286304,-0.79587907,0.47264042,0.5831745,-1.8352163,2.5157418,-0.006179036,0.86188346,0.06300509,0.94792825,-0.6978457,-2.0649316,-2.1628022,-2.8989189,-3.2292044,0.7877155,-0.8488113,0.6728787,3.2463057,1.1375074,0.13693039,-0.59570247,0.6299254,0.6067103,1.0204045,-1.0094719,-0.16991758,-1.2378175,-1.4215045,1.2737128,0.11302734,1.1870117,-2.2911127,-2.6406355,1.5902926,-0.7780807,1.4031537,3.6529026,4.632186,1.8403958,-0.4387162,3.4895787,-1.2175201,-0.990015,-1.1497089
ASFI,0.76164824,-1.8494979,0.6291446,-0.982407,-2.3961082,1.6548798,-0.7892809,1.2136784,-0.20522138,-0.2340088,0.1761356,0.13093469,1.6074557,-1.4657637,1.0221362,0.48626384,1.7219949,-1.0727096,-2.1325393,-2.3533053,-0.1659172,-0.28549236,-1.7469225,0.31910303,-1.0455757,-1.0107208,0.74656934,2.069051,-0.94781077,3.734715,-1.8734344,-0.22402805,-0.7167645,0.07634986,2.729075,-2.0445764,0.7027593,0.32387066,0.003718437,2.066059,-1.2655536,2.386196,2.5345829,2.3412955,2.968014,-2.7657282,-1.1203396,0.9236827,0.4412839,-0.20265336
ASMB,-0.52350014,0.6057918,-1.0858579,1.0548923,1.4956621,-0.75816834,0.5619887,0.8361855,1.8609202,0.8783503,1.1689113,-0.39693037,0.64105207,2.3051617,-0.42797717,-1.4589505,-0.54717416,-0.58368605,1.2806711,-0.77951413,-2.3619463,-1.0377177,0.78431994,1.0511699,0.33018655,-0.4661002,2.8086972,-1.6607776,-1.4298818,2.4348383,1.412769,-2.9081614,1.1587105,-1.018444,-1.9649217,2.6478622,-1.2220982,-3.5844138,-1.0546647,2.0347054,0.92470795,0.38759694,1.2310005,1.7849478,1.2454097,-0.59237957,2.4982626,-1.549412,-0.87055,-0.24435425
ASNA,1.6386105,1.6003789,1.127923,3.5751739,-3.6756787,1.8133855,0.09151799,0.94506407,1.7872528,-1.5704398,-2.0354893,-0.5665403,1.8361449,0.6235694,-0.8161395,0.2126454,0.23084283,-3.5121248,0.108555384,-1.5299864,-0.778576,0.36622888,-3.4997826,2.3778996,-0.8171445,-1.8199952,-1.313097,0.373995,0.3651381,2.2248037,-2.0676398,1.9542799,0.30435297,-2.375871,1.2538018,-0.3362623,1.7374953,0.75108373,-0.5630903,0.29659152,-0.8892448,1.9375309,0.29692522,0.5247228,4.5622005,-0.34203717,-1.7674735,1.8745091,-1.1335584,2.0484884
ASPS,1.9487948,0.34350604,0.12899816,0.5267608,-0.39414462,0.86133814,-0.1842643,0.19905062,1.0293348,-3.3581219,1.9103934,2.1852052,-1.1990461,1.8395655,0.9847703,0.918674,-2.0045536,-2.8452473,0.15994607,-1.4137816,-0.5980099,-0.5484176,-2.7443972,-0.44232273,1.8428997,0.032833084,-2.2518797,-1.3163573,3.7060666,0.295347,-2.1539357,-0.39197192,0.34064656,1.8001795,-0.80859286,2.0490377,1.1503923,-0.079389155,-0.46346128,1.6657454,-4.5802417,4.099197,1.0058591,-1.6133174,2.1120389,1.0458009,1.5276468,0.5797811,1.526505,0.15607813
ASRV,-0.72927266,0.26439083,0.9495234,0.29434028,-0.5115897,-1.530173,-1.19596,0.7369496,-0.25528476,0.21610898,0.87499464,1.269322,0.8604853,-2.005219,-1.1242979,-0.96274096,0.17353326,-0.6845406,-0.30158514,-0.5339935,-1.6756635,1.2077615,-0.94950235,0.025166156,-2.4411745,0.6852014,1.1715053,-0.049897768,-1.7053456,3.0772188,2.6771314,-2.6677697,0.117342524,-0.5802991,0.5572007,1.4522247,2.9913077,-1.4300344,-0.5310891,1.2180605,-1.0462085,1.7801656,2.157389,2.3727417,2.6015782,-3.543525,-1.0519415,1.3268156,-0.019565502,0.90865517
ASTC,1.5700501,0.84002465,0.3665562,2.7384384,-1.2762747,1.4177951,-0.63954353,3.3813787,-0.99114144,-2.7319562,1.6254754,2.6132982,0.9835926,-0.7506555,-0.19461015,0.6906165,-0.97310525,-1.888457,-0.7465206,-1.703911,-3.499543,-1.0499549,-2.2110257,3.6934657,0.35619405,0.4231909,-0.8689969,-0.1321327,2.2876852,3.285182,-1.8402451,0.734396,-0.118712954,-0.76631457,0.409646,0.18883727,1.1963905,1.9239556,-1.7320871,0.38140008,-1.2217839,0.44408867,-0.20303875,-0.054141525,2.315954,0.26404506,-1.1404082,1.1209011,-1.3299103,3.1369293
ASTE,2.1793864,2.160526,0.34792513,1.5487059,-1.3028917,-0.27294847,-0.545601,2.119562,0.6926531,-4.4962583,2.4577909,0.73616534,3.034217,-0.6668998,-0.37557536,0.06500755,-2.0662875,-2.402282,-0.3686286,0.9601814,0.83277935,-0.5622732,-4.2829857,2.8402357,-0.6960537,-2.4337435,-0.10420761,-1.2966634,0.89082706,2.1196263,-0.24133559,0.99956894,1.1749661,-0.27686998,-0.56833965,-1.1133657,1.2000095,1.2825089,-2.3389766,0.96319026,-0.047479644,0.35827464,-0.8309994,0.5067159,4.2509065,0.11068066,1.7107852,2.5326788,0.19601306,0.85278887
ASUR,1.8645631,1.8194134,1.0113311,2.3257918,-1.9721162,2.6283898,0.6572199,0.12378293,0.48055324,-0.55783665,0.22264706,0.12666138,1.3998352,0.032990996,0.22547445,0.30094582,-1.3557731,-2.295384,-1.2511309,-0.84848666,-3.0253665,-0.0030388602,-2.781428,1.4430989,1.5466989,-0.02151144,-3.1638095,1.4433526,1.3961523,2.6625113,-0.3312935,1.5249435,0.13884152,-1.862944,1.7451689,-0.43541986,1.2545437,2.0600674,-3.4275627,0.08650743,0.03759396,2.278918,-0.5616342,2.7907236,3.279831,-2.2454777,0.3007611,1.3997076,-0.45889205,1.4405806
ASYS,2.896012,1.9130265,0.40177158,0.48100543,-1.4364612,2.191936,0.9296198,-0.77270514,0.35597345,-1.4728547,1.4769545,0.8627003,2.1771083,-0.33753362,-1.0525912,1.0569909,-2.191102,-2.7656136,-0.049238745,-1.0047938,-2.5081,1.559309,-3.4607184,1.9241663,-2.0758772,-1.0811864,-1.0482627,1.3742583,1.2212757,2.7125318,1.3294666,0.5765401,-1.1822107,-3.5210705,0.69160056,-0.36655608,-0.3434308,0.16042727,-0.52706903,-1.2137985,-3.4479067,0.029863108,-0.29152745,-1.1049603,4.145112,-0.7835983,2.3063126,2.8393538,-1.641577,0.16151264
ATAX,1.6871448,0.022754775,1.7288463,-0.8391749,-3.6321504,0.47813892,1.3877238,-1.2550192,0.6501503,-2.1764157,2.1719694,-1.0688802,1.3199887,0.47909513,-0.7744396,0.276926,-1.6555463,-2.6072528,0.039348386,-1.5221637,-0.032859195,-0.19618346,-0.8110952,2.7680361,1.6776767,-0.8293314,1.7714622,-0.44603285,-0.06896308,0.76253694,0.8769528,0.7809262,-2.2104018,-1.9901386,0.13645878,-1.0239494,1.160562,-2.545656,-1.5638787,1.927433,-2.0120401,1.0555245,3.1286454,2.0236485,2.2914248,-0.77182025,2.4933105,-0.37051988,-2.0623972,-1.2120895
ATEC,1.2356809,2.4896266,-0.35549125,3.557548,-1.4151038,1.0719094,0.113733016,2.3168812,-0.5360609,-2.6390805,1.6766156,1.3634087,1.7213178,-1.9701362,-2.4230797,1.1758723,-2.5685446,-2.204973,0.48920435,-0.83739656,-1.898501,-0.77467483,-2.1833813,3.3256347,-2.0095303,-1.3869888,-0.552205,-0.54924935,2.3865924,2.4135098,-1.9665754,0.9957246,-0.056873962,-0.73665965,0.22464973,-1.4957368,2.1679378,1.7409304,-2.4412553,1.1865462,-1.4559433,0.15168488,0.38230494,-0.51555675,4.3757734,1.0656686,0.7120108,1.7043198,-0.08242548,0.49353826
ATHN,1.8867791,2.416291,2.2704375,1.3479,-2.5848901,-0.2285684,0.87950057,-0.4546576,2.3996024,-1.0784211,-0.15997714,1.3047426,0.96717155,0.5534945,-1.9960608,0.5611939,-1.8800838,-2.3755755,-1.9351097,-2.3427696,-2.1176755,1.32769,-2.2437923,2.648642,-1.615612,0.58802164,-3.3080027,-1.0448846,2.5360026,1.8682657,-2.035742,2.112379,0.056894287,-2.0804508,1.3285477,-0.93619823,1.1423694,-1.2544698,-2.1113224,-0.5912505,-1.6898509,2.437184,0.47989243,2.5465634,2.976259,-1.6243249,0.45153207,1.6710236,-0.72885084,0.5755102
ATHX,1.5882533,0.16987124,-1.3225762,-0.18307331,-2.2834985,1.2982929,1.0293075,0.8027844,0.78716594,0.416668,1.2105287,-0.15778615,1.438519,-1.8300391,-0.015446372,-1.0684363,1.1966317,-1.4263016,0.7372565,-0.11614023,-3.5607877,-1.4628397,-0.70994186,1.5428389,1.3958389,1.1388435,2.5123086,-0.21562861,-0.4848405,1.8224666,-0.713261,1.0325166,-1.1581314,-1.2433274,0.6878331,-0.9057053,-2.2929583,-3.2700791,-1.2293779,2.5612564,-1.4815588,1.3225658,-0.8537736,2.7875915,1.4864619,-0.95852953,2.523593,-2.1208477,-2.6822553,-0.8246944
ATLC,-0.21577549,-0.40301335,0.8532948,1.862488,-0.59627837,0.17793247,-0.37517697,0.54307836,-0.90099084,0.8854722,1.4053818,2.4618747,0.022647996,-1.3648047,-1.282229,-0.63287836,0.8242535,-0.43438405,0.4433439,-0.89391494,-1.5098213,0.71113527,-0.012229444,0.3777363,-2.8126612,-1.0657997,1.7868336,1.0732976,-1.9846371,2.7002916,1.0054456,-2.008797,0.83917564,-1.0159146,0.25460848,0.26081923,3.4397972,-0.08827823,-0.5658509,1.5555505,0.73120725,2.9298105,2.4513702,3.1267853,3.0508113,-2.3556232,-1.5860395,0.60600954,1.1006917,0.8456125
ATLO,-0.10867003,-0.16853416,2.2657423,-0.26674643,0.95600325,-1.1707109,-1.1953443,1.7940716,-0.7109605,-0.0506473,2.2671382,1.723948,0.11564339,-0.68727237,-0.27023396,-0.8543871,-0.22762837,-0.46203405,0.030932033,-0.8032448,-1.1444743,0.76928425,-0.25570282,0.48640805,-3.0235806,0.12195628,0.5064796,0.34756887,-0.30263555,4.0422397,1.9539843,-2.7229128,1.5421939,0.056651957,-0.67617965,0.50284344,3.1402376,-0.55261207,0.31984687,1.7821873,0.41226315,1.7948557,2.4534397,2.9903536,2.384767,-2.0485532,0.10396098,1.0135809,2.044648,0.7366459
ATNI,1.0160003,-0.5011457,-0.5911446,-0.072835155,-1.3713429,-0.043578316,0.8500198,-0.25060213,1.8622423,-2.560927,0.5932243,0.7196622,-2.0145738,-0.016201934,1.210555,-0.55412793,1.1084504,-1.0541675,0.006296482,0.39940003,-1.3936416,-1.5913775,-1.0710962,0.22181602,1.5816627,0.034171436,2.5475793,1.2326139,0.3708963,0.54064846,-3.3113837,1.128151,0.8570869,-0.23908705,0.80544573,0.8784079,-1.3228432,-2.978422,-1.6480027,4.100269,-2.1232343,3.4481645,-0.647525,-0.953127,1.925292,2.3911946,1.1840415,-1.5571659,1.525743,-0.9365206
ATOM,-0.05595462,0.8187238,-0.15875113,1.4896476,0.28244314,-0.27041647,-0.30210918,1.2179492,0.32081395,0.6860985,0.71732813,0.49772537,0.28483352,-0.6355146,-0.93858236,-0.66434413,0.14011692,-1.1826338,-0.23451234,-0.45300978,-2.187569,0.709427,-0.7403358,0.81403714,-1.0779146,-0.013421076,2.2040637,0.009451674,-1.9606351,1.9491755,0.77792925,-0.16964272,0.21860269,-0.6881318,0.0017698164,0.95790434,-1.0886816,-2.4359026,-2.042311,1.5761749,1.3645662,1.9490949,-0.67487764,1.0032662,0.43766052,0.43416712,1.2034382,-1.077069,-1.0792564,0.87631273
ATOS,0.07141878,0.54521894,-2.0261524,2.1502717,-0.06653369,-0.36934477,-0.7063562,2.273149,1.6902425,-2.8483415,0.48122987,1.529314,1.0362424,0.992995,-0.6637036,-1.3875229,-3.597214,-1.4456936,1.6015776,0.7437145,-1.8710705,0.9799703,-1.4021796,4.219654,-0.81334764,-2.1884816,-1.6366495,-2.2661104,0.2585686,2.8177917,1.0786511,-0.8338034,-0.67611897,-1.2878494,-2.0237489,1.3872548,3.118294,0.44239795,1.9956418,1.142642,-2.511686,0.85884804,1.3232365,0.33585727,1.5244198,1.3147165,1.47472,0.91632575,-1.2081299,2.5528133
ATRA,-0.72583985,0.9924784,-1.1262547,2.9168942,1.9719929,-0.7611117,-0.09043753,2.2360232,1.96483,0.6134828,0.9307658,0.11876902,-0.5547451,1.5184125,-1.23514,-1.1354386,-0.032716464,-0.39791736,1.9614476,-0.9123836,-2.6261983,-0.75949883,0.41600248,1.8686953,-1.0332571,-0.21680452,3.514159,-1.2024686,-2.236293,2.9665694,0.016362103,-1.7759736,0.24867438,-1.0920062,-0.91608346,1.4863496,-0.09056843,-2.7995746,-1.1533569,2.1536486,1.346616,1.0510623,-0.48421788,1.3415858,0.8718041,0.6258099,0.6907543,-1.4346087,-0.704172,0.8461471
ATRC,0.8641987,1.9855504,0.14178123,2.4754264,-2.3206668,0.4911246,-0.75904393,1.0266826,-0.0753957,-1.8823476,-2.2081249,1.0492463,1.3664001,-0.277288,-0.3587652,-1.1628091,-2.8987284,-3.328502,-1.2776797,-1.0501748,-1.9989355,1.5374334,-0.08414985,1.8614258,-1.8083497,-0.86508554,-2.975517,0.9475786,0.10307216,3.3447585,-1.5877602,2.5577428,0.15093063,-1.3014106,1.1157732,0.3812883,0.94350696,1.4223286,0.42717418,-1.1035596,-3.6515942,1.4720726,-0.59321994,1.2587682,4.605469,0.016972817,1.4326543,-0.06339156,-1.0820773,0.14715503
ATRI,3.3477585,1.7534778,0.96933323,4.1023064,-2.30348,2.2252197,0.4990984,-0.0777561,0.09966392,-0.9246922,0.35804194,1.3293802,0.4917273,-0.3217398,-0.60305274,-1.3432109,-1.0665909,-2.4661562,-1.2451875,1.8150165,-2.9234881,-0.34775057,-4.123896,2.5256288,1.2499703,-2.1705031,-2.847733,-0.31706753,-1.5807617,0.37638214,-1.2251111,1.6773885,0.12442201,-2.3208442,-1.2381881,-0.80917025,1.5469345,0.014462119,-0.5808912,-0.39286533,-1.0212275,1.3791939,1.1451288,2.1226945,4.1086507,-0.81910497,-0.12723196,1.3327295,0.58058846,2.8547945
ATRO,1.3472495,1.3504986,1.5435567,3.104593,-1.3446293,-1.8041801,-1.4725918,3.2291002,1.1734384,-2.1116266,2.098807,1.292393,2.2032506,0.5285095,-0.8252606,1.360207,0.08319449,-4.0556355,-1.4390676,-0.81571776,0.52310044,-1.8813738,-2.1703997,2.9557927,-0.9950031,1.0388428,-2.5079353,-0.55646384,1.6889911,3.3312054,-3.3307767,1.380115,-0.890265,-0.37794122,-0.856563,0.818822,0.69267595,0.36010605,-0.4641339,1.0050453,-1.1585032,1.4484613,0.20146453,1.3223137,2.4212081,1.1887795,0.7363821,2.3995929,-0.014619371,2.0582445
ATRS,1.2390331,3.4030876,2.2245722,2.7339587,-1.8869159,-1.0727074,0.16778214,2.3226302,1.3245677,-2.0272195,0.306522,1.0502027,2.3090696,-1.1164094,-2.3501933,-0.818584,-3.1860018,-3.4669983,0.41455397,-0.56570715,-1.3092636,-1.1848332,-2.3866405,2.4484923,-1.2648426,-2.2497914,-1.6795592,-1.1064616,1.7587156,3.0809512,-1.0736965,2.7546053,-0.6091474,-0.964515,-0.9923832,-1.2430737,1.0179911,0.19881639,-1.525829,-0.7371811,-0.7542077,2.1360514,0.3170371,0.7750784,2.6502662,0.6970005,0.4445628,1.0181837,0.6345052,-1.2247281
ATSG,-0.9979734,0.7397964,1.5398989,2.518313,-3.623429,0.040236246,-0.748335,0.7752528,0.72730285,-1.5925039,2.142215,-0.2921153,1.480897,-1.7522926,-0.43965754,0.38384855,-2.0534687,-1.9889599,-0.031719718,-1.1588783,-2.2169242,-1.1663115,-1.0946723,1.8829455,-1.3123095,0.46770263,2.2358267,-0.92109156,1.8116118,-2.3045614,1.7747165,1.8915057,-2.317107,-2.0427864,-0.7029831,-2.167608,-0.27941343,-2.3260295,-2.0131834,1.6944915,-1.9114904,1.3300601,2.6977713,1.3738996,1.7968283,-2.8497014,0.76326555,-0.7089926,0.46146423,1.3280712
ATVI,1.5431582,0.93690693,1.2214727,1.940045,-5.1259575,0.22621495,1.0496477,0.19588134,0.880475,-2.3331418,1.8716917,0.005997091,0.87437,-1.4258025,-0.63638306,0.99120355,0.84038985,-3.1573057,-0.08923729,-2.2801325,-1.7376821,-0.9237613,-1.4161639,2.0155141,1.0518634,-0.54548705,1.3281075,-0.45524374,-1.98389,0.57735467,-0.69081897,1.6907295,-2.1701925,-2.7917778,0.6580888,-0.9620904,1.6560749,-1.0761385,-3.18968,0.9987992,-1.0111881,2.6025846,1.0149304,2.686735,2.1813438,-1.0200894,0.43142602,-0.36742547,-1.639824,-0.010179893
AUBN,-0.9157165,-1.775656,-0.5741568,-0.46490613,-0.90958655,0.13714571,-0.51553583,-0.19321737,0.25431362,0.38794634,0.32969403,0.4560339,-0.3996955,0.5572063,0.2243206,0.11750466,0.6963049,0.39007115,1.0471107,-1.4404329,-0.23409706,0.08135492,-1.5301148,-1.1225697,0.28992903,-0.58652705,1.1941983,0.16792795,-1.3500352,0.35181952,-0.24053079,-1.8063716,-0.090731494,1.0276433,-0.008852282,0.11553152,1.759409,-1.4313437,0.6325908,2.203743,-1.2134975,2.6087563,2.0137239,-0.41658753,2.6682365,-0.9739216,-2.6304753,-0.53480154,1.9283941,0.5575564
AVAV,1.1313541,2.2235208,1.7646765,2.6950223,-1.1994723,1.4790756,-0.5165387,-0.61327696,0.9645874,-2.350745,0.18473832,1.3730279,-0.65793437,-0.16915236,0.32721335,0.30779982,-1.1220604,-3.2997825,-0.9322699,0.47539532,0.2448247,0.010247158,-3.4822984,0.14166115,0.29287234,-1.6946238,-2.1784308,0.23171024,-0.07171445,-0.23539847,-0.5787062,1.5800433,-1.0131882,-0.20146969,0.60397464,2.139641,0.13651572,-0.34924996,-2.967981,1.0949916,-4.190438,5.6875944,-1.051932,-0.39713687,2.5760272,1.2466716,-0.7637237,1.368286,1.2450719,-1.1208434
AVDL,1.5386574,0.114567265,0.34681073,1.621957,-2.741444,-0.8596819,-0.36039498,-0.385892,-0.2252563,-1.4497436,1.9938278,-0.6878686,1.4744042,-2.4575858,-1.3312361,0.3555331,-1.4015138,-2.0463958,-0.904327,-1.7694633,0.19686233,-0.14644195,-1.3093195,1.762401,1.1991198,-1.2654451,1.1057547,-0.21224369,-0.587628,0.67763835,1.4203309,0.69983655,-1.9643441,-1.6109339,-0.039613415,0.34755203,-0.15487772,-2.0472417,-1.7457952,1.6472712,-1.8385832,1.0080901,3.0984926,1.2860508,0.6451082,-0.31105623,1.9549776,-1.7930713,-2.2393038,0.8849744
AVEO,1.3062001,-0.5381203,-0.50568897,1.6846514,-3.5985994,-1.7691065,0.7083904,-0.06076,-1.0895454,-2.9013867,2.6004114,0.14496507,1.1943269,-2.4242604,0.083061896,1.354255,-2.317744,-3.0431247,-1.211794,-1.8833933,-1.5401149,0.1217411,-1.5120674,1.5107203,1.223574,-0.3156723,1.3834382,-0.2129197,-0.17342864,1.6408712,1.3217553,0.82323396,-2.5488293,-2.9262252,0.2601242,-1.2954164,0.96393806,-2.8355837,-2.0902913,-0.15825352,-1.4752232,1.511248,1.5499284,2.716399,2.2180784,-0.63935214,2.3933456,-0.36039278,-1.2675095,-0.21401969
AVGO,1.898732,2.4937832,1.4058812,0.6015012,-3.2983398,1.2654266,0.04546892,1.8406429,0.76282656,-1.7806178,0.11849103,1.696513,1.1738553,-0.43458542,-1.6071304,1.2914786,0.66268635,-2.5502672,-0.90250885,-1.1292086,-1.4636837,1.2094767,-2.9594324,2.5512614,-0.9941726,-0.97740185,-0.5243818,-0.13604482,0.38422036,1.5657579,-0.27175957,0.65776056,-0.9064958,-0.7453845,-0.42830056,-1.1929502,-0.36828843,0.34303617,-1.9946548,0.08260245,-1.221009,2.5996401,0.6596828,-0.1656743,1.6827929,0.13527924,1.1737739,2.7595925,-2.7505317,1.7593762
AVGR,0.56228614,2.330702,0.8641774,2.006818,-2.4015696,1.5367516,0.6577426,0.9363413,0.39088643,-1.9541993,0.21323489,0.25466472,3.1880546,-1.2630788,-1.3619276,1.3967906,-0.89598745,-1.2528623,-1.2819438,-1.0643134,-1.8859762,0.7214961,-3.0163655,2.8019037,-0.75595045,-0.10112732,-0.39224052,-0.5828194,2.5727527,3.3279567,0.05235157,0.13048883,-1.4441593,-0.85995543,2.690888,-0.652574,0.865001,0.8474745,-2.1053076,0.6453142,-2.5620701,0.8192759,-0.61587197,-0.21036817,2.7663827,0.3581746,1.1415452,3.2902098,-2.10193,1.4920002
AVID,1.9855403,1.0109146,2.540933,2.082136,-1.8999202,0.361493,1.2169034,-1.4698639,0.022494417,-0.97053653,-1.3881654,1.5988224,2.067254,0.5221777,1.0836505,-0.37511694,-2.583529,-2.6574678,-2.2222607,-0.9399969,-1.9326273,2.0212805,-2.9649756,2.2611873,-1.4600809,-0.3943308,-3.0149941,1.0340178,0.8413988,1.9549706,-0.27327302,0.34278327,-0.66908985,-2.0655122,-0.8204561,0.19441147,-0.26664576,0.8150159,-1.7865537,1.0458289,-2.891994,2.0088856,-1.3558637,2.3934164,3.3320591,-2.55669,1.9263654,1.514895,-2.7206523,1.3514459
AVNW,1.6757946,2.3720734,1.4950862,2.3830867,-2.7769935,-0.219302,0.1527275,0.22591247,1.0718708,-1.4567244,0.33554634,0.2774418,2.2500215,0.7933607,-0.88925475,2.6336944,0.17453615,-3.1002588,-1.2646577,-1.1003778,-1.3753855,1.6999136,-2.3743513,3.8363526,-1.7326683,-0.21014458,-1.8404135,0.9287663,1.6071829,2.3441443,-1.8491758,0.5229423,-0.5291449,-1.8621082,1.6536677,-0.2860022,1.2242607,0.7383665,-2.1711855,0.20351817,-0.94193757,2.2357407,-0.8824654,0.5105523,4.1057134,-1.7634851,1.1571229,1.9214652,-0.46808946,1.5547631
AVXL,-2.5086691,0.6261813,1.0299522,2.3841681,-0.0034806842,-0.20970646,-1.411468,1.6308035,0.9315777,0.25532714,0.9603665,-0.3409708,0.8523889,0.8653505,1.0736014,0.15804851,-1.9248581,-0.61428106,1.077958,0.25116548,-1.7215977,-1.4472569,1.3752542,1.0550873,-2.5047224,0.72971916,3.2435548,-0.45387843,-1.0393622,0.73134875,1.8286626,-0.45673043,0.72749996,-1.5508184,-1.2227241,0.9553291,-0.7619538,-2.926216,-0.77473646,1.4843615,0.939523,0.17600505,-0.076354936,1.3512471,1.5247238,-0.85653734,1.2571751,-0.94599175,2.2390711,0.16257599
AWRE,1.4408611,-0.73085225,-1.2977649,0.6385035,-1.6233084,0.08579003,-0.035320316,1.127101,1.4014573,-0.009891218,0.24037021,-0.59537715,0.7164497,-0.6762977,0.30720133,-1.479543,1.5036591,-1.6121316,-1.4997683,0.11246069,-3.2597153,-1.1864713,-0.34019697,1.7285072,2.4532385,0.99013263,1.5841837,1.6479279,2.2225358,2.6243074,-1.444292,0.9049558,1.0071179,-1.8084537,0.38816845,-0.57687455,-1.9516646,-3.6543944,-0.5389592,2.9738336,0.8089491,1.2637178,-1.7305281,3.3668115,1.9638146,-1.1769892,1.2817979,-1.2471166,-1.2874649,0.28007093
AXAS,0.062367603,-0.5197084,-3.353175,0.9894989,-2.4568112,-0.022953913,1.3296348,2.6048636,0.18474045,-1.9894532,0.7233318,-1.1789722,0.22406921,-0.68621355,1.1177346,-0.2748704,1.6315001,-0.6390963,1.0677488,1.1959985,-3.6742444,-3.56583,-0.07856755,1.0307649,0.9558862,0.7142076,0.97317934,0.38156122,0.14224945,2.5320973,-2.343048,0.20519152,1.0647955,-2.9689293,0.4158718,-0.6733662,-0.8342712,-2.3631492,-0.77780867,2.2214687,-1.5517758,6.932902e-05,-0.85392547,1.4710593,0.77282584,2.0134585,1.2610501,-2.3392034,-1.51089,1.9198393
AXDX,1.2966647,0.79507995,-0.7051266,1.3278043,-2.76799,0.8981352,0.023032002,-0.12399985,-0.2253728,-1.8182304,1.8722043,-0.33665052,1.0633518,0.93690485,1.3251144,0.641577,-0.99388057,-1.6386073,-0.42394927,-1.7463967,-0.9883496,-2.8543859,-1.0345727,1.1785164,1.9268152,-1.5763024,0.53384084,-0.7579496,-2.4747956,3.4474792,-1.6817663,1.0035834,-2.9780316,-1.8730519,0.88960534,-0.42523286,1.4427761,1.1831005,-2.8327777,1.0547854,-1.2875124,2.292917,0.57576483,3.027492,1.5752136,-1.5375038,3.3842378,-0.9838307,-1.0291494,-0.8323439
AXGN,2.104122,1.1595305,1.6565213,3.2122595,-1.0655136,-0.42591152,-0.33581853,1.2033337,0.53271717,-3.2332861,0.26795015,1.3290168,2.7965832,1.7139751,-1.5374873,2.400138,-1.8509389,-4.1347485,-1.0770692,-1.5506556,-0.16860923,-0.06353418,-1.7292552,3.0804095,-1.7435222,-1.18714,-1.3170992,-1.7150164,0.83988535,4.333245,-3.289444,1.3707422,-0.5765873,-0.14084727,1.5798995,0.32190076,0.6951639,1.637334,-1.3918583,1.0504912,-2.1941845,1.5332279,-0.7384602,0.53569543,2.4021773,-1.2082124,1.20324,1.3717713,-0.8146059,1.0096232
AXSM,-1.4311136,0.94057757,0.11355845,1.8342841,-0.042711213,-0.38421112,-0.6187152,1.3940951,0.8852161,0.5175918,0.3132388,-0.02389264,0.65864295,-0.141487,-0.7085255,-0.761434,-1.1001658,-0.7598235,0.95695543,-0.33951992,-2.8795006,-0.14660506,0.47347015,1.014555,-1.8654531,0.24920468,2.7452343,0.39676937,-0.6157217,0.6932519,1.4168284,-0.2314578,-0.30247897,-0.98939526,-0.507114,0.021082105,-0.89818126,-2.4839892,-1.5304022,1.7129618,0.7933648,0.76450455,0.82803464,0.26583248,0.5622935,0.0044512316,1.1295388,-1.4316587,0.45296314,1.1898972
AXTI,1.9946928,2.1915586,2.2977724,2.515817,-3.8344412,0.84791106,-1.2014304,-0.718356,-0.31973496,-0.2549751,-0.36663744,0.085867584,1.2432927,0.64176786,-0.30031657,1.3860763,0.3535924,-2.858441,-1.121096,-0.19864856,-1.6957169,0.2607987,-3.745676,2.3457463,-1.0158852,-1.0555657,-2.7697482,0.28459805,-0.3592438,2.024156,-0.98057556,0.7885292,-1.1905702,-3.7431123,-0.94592506,0.2607969,1.3652786,0.38782072,-2.1467047,0.6445014,-2.24981,2.920447,-2.477472,2.1957743,3.0663383,-1.2539085,0.46614426,1.8480186,-1.1148056,1.8029857
AZRX,-0.39885715,1.1121874,0.48068628,1.9258037,-0.26295084,-0.47394824,-0.7686127,0.6387173,0.50678444,0.26811445,0.10179106,-0.29962292,0.6899557,-0.1705771,-0.40836468,-0.24330567,-0.36966038,-0.9240077,0.13878082,0.091306955,-1.3518497,0.17796491,0.23159485,0.6465838,-1.2330925,-0.35081598,2.0261612,0.22938362,-1.1487734,0.018441599,1.3495213,-0.015707232,-0.33870292,-0.3840241,-0.42073393,0.39892036,-0.8423565,-1.8966218,-0.9228061,1.3225349,0.7069848,1.2232724,0.34119928,1.1446284,0.15537961,-0.2502307,0.73004186,-0.805475,0.48790765,1.0352297
BANF,-0.6535383,0.113808505,1.6651863,-0.2581575,-0.26846808,-0.7454447,-1.27796,0.40520558,-0.51033455,0.15129733,0.77611154,0.93855447,0.010693462,0.19826932,-0.8829056,0.29699305,-0.5889763,0.28729117,1.2824929,-0.7855896,0.106274,-0.2605722,0.6957686,-0.009529194,-2.2034242,-0.9837201,2.061684,-0.77572966,-1.677586,4.620874,1.6570516,-3.2501535,0.6594919,0.11832898,-0.3656678,0.6824505,3.269872,-1.3159508,1.0372218,1.2435788,-0.07380567,1.0394597,2.0985496,2.8102016,1.3084452,-2.0062575,0.44615537,0.5887529,1.6343904,-0.08078704
BANR,-0.73121864,1.5301744,0.21421346,1.781246,1.3484175,-0.6508673,-0.9839865,2.004836,1.1877458,0.19341917,1.1109307,-0.9365388,0.50683933,2.1710978,-0.3445036,-0.3568264,-0.13009195,-1.0335158,1.1073571,0.23801275,-1.943812,-1.4512593,0.21972835,0.36892736,-1.1965443,-0.67246443,2.7457411,-0.6334242,-3.012501,3.1820383,-0.31709722,-1.5611633,1.3255538,-1.8696445,-1.4025161,1.6036245,-0.13753623,-2.3073573,-2.1856458,3.3400686,2.5907316,1.7861626,-1.3236005,1.9261621,1.7893707,1.1178628,1.808348,-1.1478769,0.11257339,-0.91853356
BASI,1.4017816,1.6111296,0.435691,2.6337795,-2.0440595,2.1886568,-0.5391363,-0.2313253,-1.2709684,-1.8102825,-0.2923068,-0.20128499,0.8061414,0.8900761,0.2577417,0.86667967,-1.7151855,-2.938066,-2.509386,-1.7823792,-1.0912428,0.6076354,-2.4676204,0.19008563,-0.08538422,-0.6985847,-2.1513011,1.4183999,0.503143,4.368177,-0.91102296,1.7272362,-0.26911777,-2.778643,2.7359087,0.26739815,0.9518274,1.6792729,-2.319637,-0.74421847,-1.6682914,1.1449077,-1.498125,1.7020712,3.355557,-0.83934563,0.8993238,1.5027527,-1.5670841,1.9988949
BATRA,1.0286351,0.7878519,0.88349396,2.6334085,-4.853796,-0.3393078,0.051579922,1.1423264,1.800043,-1.6087378,1.0025247,0.4619157,1.6955153,-1.230035,-0.76908845,0.20692353,1.3864319,-2.2390249,-0.44421563,-0.51628834,-1.2179823,0.30769593,-1.2190795,3.6498322,0.32124084,-1.326559,2.3087132,1.4518279,-1.5802628,0.995754,-0.08013681,1.5766481,-0.71345246,-1.7853575,0.2592881,-1.3721331,1.743297,-0.3406237,-1.7562616,3.210272,-0.7271409,3.1624393,0.51208436,2.6044414,3.826822,0.18410122,-0.5140043,0.25607324,-1.1317854,0.4332154
BATRK,1.0648317,0.7124857,0.89220583,2.646312,-4.833774,-0.47282648,0.04707547,1.2735935,1.7793404,-1.5679126,1.0530138,0.5126015,1.8394718,-1.195374,-0.80922765,0.19440256,1.326431,-2.1854646,-0.49437705,-0.41398808,-1.2127323,0.17455414,-1.1782534,3.5413532,0.20495138,-1.0834073,2.2479572,1.456384,-1.6471549,1.1818621,-0.04854256,1.5737798,-0.6797322,-1.8124342,0.22341447,-1.5232122,1.8189279,-0.28174624,-1.6515135,3.1255777,-0.72667116,3.147807,0.37317774,2.5477805,3.903902,0.13314632,-0.4540108,0.35439056,-1.093368,0.44097334
BBBY,2.1093519,0.3724929,0.7780717,1.2704773,-0.88697094,0.61825454,-0.50774604,0.2882333,1.5997914,-3.3160067,0.6194841,2.812113,-1.7514622,0.7928281,0.035206273,-0.58739734,-1.2237452,-2.406953,-0.68204224,-0.26467848,-1.0894245,-0.19154596,-2.5961218,1.3293515,2.0035212,-1.7043296,-1.9852527,0.09864127,2.9488544,0.13001142,-0.5309516,0.6293101,-0.6021918,1.6947855,-0.12017841,1.7410977,0.6224615,-0.0020327535,-0.8403276,2.105054,-4.5646644,3.2725773,0.57427466,-2.1257365,3.7314253,1.7713828,0.23579355,1.7749865,2.433035,-0.2214392
BBGI,1.5429026,0.058003593,-1.0085549,1.5663615,-3.1549177,0.21983717,-0.1329734,1.0477306,1.2428204,-1.0733098,0.6729161,0.5385715,-0.37217113,-0.96417683,-0.7494757,-1.579271,-0.14380908,-2.8067734,-0.65782154,-0.73157203,-0.29850215,-1.4895469,1.7885225,2.8036401,0.9034442,-2.9016268,2.7446282,1.1445836,-1.8283812,1.3972026,-0.8724555,1.4303329,-0.56945527,-1.5894814,0.90278906,-0.48566663,-0.33923125,-3.1705077,-0.27032822,3.2861495,-0.6271956,0.11556589,0.81010437,3.5379572,1.329977,0.7078789,2.2211566,-3.0613792,-0.89930815,-0.7922967
